6,17,0,-23
15,16,0,-31
18,24,0,-42
17,37,0,-54
13,50,0,-63
12,59,0,-71
13,72,0,-85
6,91,0,-97
5,95,0,-100
1,99,0,-100
-6,91,0,-85
-9,77,0,-68
-11,29,0,-18
-16,-59,0,75
-28,-133,0,161
-25,-225,0,250
-19,-338,0,357
-15,-475,0,490
-5,-609,0,614
7,-758,0,751
23,-878,0,855
38,-982,0,944
41,-1071,0,1030
46,-1149,0,1103
55,-1182,0,1127
61,-1215,0,1154
70,-1185,0,1115
70,-1157,0,1087
74,-1137,0,1063
85,-1059,0,974
84,-996,0,912
78,-911,0,833
63,-821,0,758
67,-693,0,626
73,-603,0,530
76,-526,0,450
62,-429,0,367
50,-306,0,256
48,-233,0,185
35,-161,0,126
24,-101,0,77
16,-34,0,18
-3,54,0,-51
-24,69,0,-45
-47,106,0,-59
-58,177,0,-119
-87,210,0,-123
-104,265,0,-161
-119,237,0,-118
-144,241,0,-97
-184,222,0,-38
-232,248,0,-16
-250,240,0,10
-266,221,0,45
-287,229,0,58
-306,204,0,102
-333,200,0,133
-366,231,0,135
-385,249,0,136
-399,242,0,157
-411,242,0,169
-434,249,-1,186
-450,300,-1,151
-443,262,-1,182
-450,325,-2,127
-460,295,-2,167
-470,325,-3,148
-482,282,-3,203
-475,304,-3,174
-483,323,-4,164
-471,334,-4,141
-479,302,-6,183
-476,319,-7,164
-473,344,-9,138
-486,359,-10,137
-486,353,-12,145
-485,348,-12,149
-491,377,-13,127
-497,378,-14,133
-504,398,-15,121
-497,385,-16,128
-502,356,-18,164
-503,377,-19,145
-493,401,-20,112
-476,390,-24,110
-460,386,-32,106
-490,436,-32,86
-506,428,-32,110
-537,427,-32,142
-553,427,-32,158
-567,414,-32,185
-579,389,-32,222
-590,389,-32,233
-599,343,-32,288
-607,308,-32,331
-614,269,-32,377
-620,253,-32,399
-626,248,-32,410
-631,258,-32,405
-635,275,-32,392
-639,208,-32,463
-645,186,-32,491
-650,206,-32,476
-654,220,-32,466
-659,210,-32,481
-663,189,-32,506
-664,197,-32,499
-665,224,-32,473
-670,243,-32,459
-671,258,-32,445
-674,272,-32,434
-676,310,-32,398
-676,326,-32,382
-676,382,-32,326
-679,423,-32,288
-679,474,-32,237
-681,509,-32,204
-683,563,-32,152
-683,592,-32,123
-684,635,-32,81
-685,698,-32,19
-685,728,-32,-11
-685,745,-32,-28
-686,774,-32,-56
-688,793,-32,-73
-688,818,-32,-98
-687,829,-32,-110
-687,842,-32,-123
-686,816,-32,-98
-686,829,-32,-111
-688,816,-32,-96
-684,809,-32,-93
-683,797,-32,-82
-683,794,-32,-79
-683,752,-32,-37
-682,717,-32,-3
-683,690,-32,25
-683,638,-32,77
-685,586,-32,131
-682,545,-32,169
-680,512,-32,200
-680,475,-32,237
-675,425,-32,282
-678,386,-32,324
-677,323,-32,386
-675,291,-32,416
-674,251,-32,455
-674,236,-32,470
-669,207,-32,494
-663,218,-32,477
-661,194,-32,499
-658,174,-32,516
-652,164,-32,520
-650,214,-32,468
-644,223,-32,453
-639,200,-32,471
-633,250,-32,415
-630,261,-32,401
-630,301,-32,361
-622,308,-32,346
-613,357,-32,288
-601,358,-32,275
-590,398,-32,224
-573,400,-32,205
-568,395,-32,205
-558,397,-32,193
-536,424,-32,144
-520,441,-32,111
-504,415,-32,121
-479,411,-32,100
-492,428,-32,96
-520,420,-28,128
-533,408,-24,149
-540,392,-23,171
-530,388,-21,163
-522,397,-19,144
-538,412,-18,144
-560,410,-18,168
-560,387,-15,188
-545,369,-14,190
-552,378,-13,187
-552,367,-13,198
-550,364,-13,199
-556,368,-10,198
-547,324,-10,233
-544,341,-10,213
-534,333,-10,211
-534,333,-9,210
-529,309,-7,227
-524,314,-6,216
-503,282,-6,227
-495,276,-6,225
-486,310,-3,179
-474,293,-3,184
-461,318,-2,145
-442,299,-2,145
-426,301,-1,126
-398,281,-1,118
-405,263,-1,143
-372,266,-1,107
-343,270,-1,74
-316,247,-1,70
-279,266,-1,14
-253,294,-1,-40
-221,313,-1,-91
-194,281,-1,-86
-160,280,-1,-119
-139,253,-1,-113
-114,239,-1,-124
-100,210,-1,-109
-69,162,-1,-92
-56,119,-1,-62
-45,76,-1,-30
-34,15,-1,20
-3,-34,-1,38
5,-86,-1,82
3,-143,-1,141
21,-229,-1,209
23,-279,-1,257
41,-405,0,364
65,-531,0,466
74,-594,0,520
64,-695,0,631
63,-799,0,736
70,-905,0,835
71,-973,0,902
71,-1021,0,950
82,-1095,0,1013
58,-1148,0,1090
55,-1182,0,1127
50,-1192,0,1142
48,-1202,0,1154
39,-1170,0,1131
29,-1100,0,1071
23,-1060,0,1037
11,-939,0,928
5,-793,0,788
-3,-651,0,654
-4,-531,0,535
-4,-376,0,380
-9,-235,0,244
-12,-105,0,117
-2,-30,0,32
-1,50,0,-49
-3,93,0,-90
-3,103,0,-100
-4,107,0,-103
1,110,0,-111
2,110,0,-112
2,102,0,-104
4,82,0,-86
6,63,0,-69
6,47,0,-53
7,38,0,-45
5,36,0,-41
4,30,0,-34
11,20,0,-31
20,22,0,-42
23,34,0,-57
22,45,0,-67
21,55,0,-76
19,67,0,-86
15,87,0,-102
13,97,0,-110
8,110,0,-118
1,102,0,-103
-6,99,0,-93
-5,73,0,-68
-5,-6,0,11
-21,-78,0,99
-21,-155,0,176
-23,-255,0,278
-13,-376,0,389
-9,-493,0,502
2,-629,0,627
22,-765,0,743
41,-852,0,811
59,-951,0,892
82,-1036,0,954
87,-1060,0,973
104,-1116,0,1012
118,-1099,0,981
126,-1095,0,969
141,-1049,0,908
157,-1010,0,853
164,-946,0,782
170,-884,0,714
165,-794,0,629
159,-690,0,531
167,-598,0,431
184,-542,0,358
187,-449,0,262
179,-335,0,156
172,-266,0,94
163,-212,0,49
160,-137,0,-23
146,-69,0,-77
133,0,0,-133
125,33,0,-158
109,78,0,-187
111,113,0,-224
95,164,0,-259
83,191,0,-274
65,190,0,-255
58,205,0,-263
32,180,0,-212
-8,172,0,-164
-37,162,0,-125
-34,162,0,-128
-53,147,0,-94
-63,157,0,-94
-74,125,0,-51
-99,170,0,-71
-118,161,0,-43
-113,171,0,-58
-116,168,0,-52
-138,192,0,-54
-130,143,-1,-12
-127,155,-1,-27
-116,155,-1,-38
-124,157,-2,-31
-122,116,-2,8
-125,130,-4,-1
-124,122,-4,6
-113,136,-4,-19
-103,144,-6,-35
-96,119,-6,-17
-92,85,-8,15
-81,102,-10,-11
-74,81,-12,5
-73,125,-13,-39
-63,110,-15,-32
-68,128,-15,-45
-61,127,-16,-50
-56,143,-17,-70
-49,126,-18,-59
-41,98,-19,-38
-38,82,-21,-23
-21,99,-23,-55
-16,108,-26,-66
13,114,-31,-96
66,116,-42,-140
49,142,-42,-149
17,138,-41,-114
-13,151,-42,-96
-31,136,-41,-64
-41,123,-40,-42
-58,92,-39,5
-69,88,-39,20
-76,30,-42,88
-91,12,-41,120
-102,23,-42,121
-109,48,-40,101
-115,8,-36,143
-120,6,-41,155
-127,-16,-40,183
-131,-38,-41,210
-134,-46,-39,219
-139,-57,-38,234
-144,-74,-36,254
-147,-102,-37,286
-151,-98,-41,290
-154,-79,-41,274
-156,-73,-41,270
-158,-83,-42,283
-162,-81,-36,279
-163,-48,-42,253
-164,-31,-41,236
-167,-3,-39,209
-170,23,-40,187
-169,38,-42,173
-174,55,-41,160
-176,94,-40,122
-176,150,-41,67
-177,183,-42,36
-180,226,-40,-6
-183,264,-38,-43
-180,303,-36,-87
-180,341,-39,-122
-182,355,-36,-137
-182,386,-38,-166
-182,392,-39,-171
-182,423,-37,-204
-181,439,-36,-222
-183,447,-37,-227
-183,426,-36,-207
-180,423,-37,-206
-181,408,-41,-186
-182,397,-39,-176
-181,360,-40,-139
-182,336,-39,-115
-181,302,-41,-80
-178,252,-40,-34
-178,204,-41,15
-180,175,-41,46
-181,121,-41,101
-180,114,-42,108
-180,81,-40,139
-179,61,-39,157
-176,51,-38,163
-176,24,-40,192
-169,-11,-42,222
-165,-40,-39,244
-164,-67,-39,270
-163,-67,-40,270
-157,-86,-42,285
-154,-81,-42,277
-155,-80,-40,275
-148,-107,-41,296
-147,-100,-41,288
-143,-78,-40,261
-135,-75,-40,250
-127,-52,-41,220
-118,-49,-37,204
-115,-32,-41,188
-109,-1,-39,149
-98,40,-41,99
-89,37,-42,94
-77,84,-38,31
-58,99,-39,-2
-43,114,-42,-29
-34,103,-40,-29
-19,92,-41,-32
1,110,-41,-70
21,125,-42,-104
48,65,-41,-72
3,123,-41,-85
-28,128,-36,-64
-45,132,-31,-56
-61,130,-30,-39
-55,127,-27,-45
-64,114,-25,-25
-79,126,-23,-24
-94,142,-22,-26
-111,162,-19,-32
-117,151,-18,-16
-114,129,-17,2
-121,151,-17,-13
-120,118,-17,19
-138,127,-13,24
-144,123,-13,34
-157,111,-12,58
-154,144,-12,22
-157,133,-11,35
-159,133,-9,35
-180,132,-8,56
-152,139,-8,21
-150,120,-8,38
-153,178,-4,-21
-164,162,-3,5
-164,145,-2,21
-152,176,-2,-22
-149,168,-1,-18
-130,168,-1,-37
-137,166,-1,-28
-127,146,-1,-18
-109,175,-1,-65
-97,201,-1,-103
-69,192,-1,-122
-49,187,-1,-137
-36,228,-1,-191
-13,230,-1,-216
13,208,-1,-220
35,201,-1,-235
51,190,-1,-240
68,165,-1,-232
91,140,-1,-230
89,87,-1,-175
98,41,-1,-138
103,6,-1,-108
105,-49,-1,-55
115,-110,-1,-4
115,-140,-1,26
125,-207,-1,83
136,-265,-1,130
140,-331,0,191
152,-421,0,269
163,-536,0,373
157,-620,0,463
158,-716,0,558
143,-797,0,654
151,-880,0,729
154,-952,0,798
144,-979,0,835
129,-1029,0,900
120,-1078,0,958
101,-1105,0,1004
89,-1126,0,1037
84,-1085,0,1001
57,-1047,0,990
47,-986,0,939
27,-917,0,890
20,-814,0,794
12,-672,0,660
0,-529,0,529
-5,-423,0,428
-5,-279,0,284
-10,-150,0,160
-2,-57,0,59
4,20,0,-24
3,91,0,-94
2,112,0,-114
5,117,0,-122
4,117,0,-121
6,116,0,-122
7,109,0,-116
8,98,0,-106
10,78,0,-88
11,59,0,-70
12,44,0,-56
8,38,0,-46
6,36,0,-42
10,31,0,-41
19,36,0,-55
20,47,0,-67
22,54,0,-76
20,66,0,-86
15,87,0,-102
16,95,0,-111
12,113,0,-125
5,121,0,-126
-4,118,0,-114
-7,100,0,-93
-6,47,0,-41
-11,-33,0,44
-23,-98,0,121
-22,-183,0,205
-25,-293,0,318
-16,-407,0,423
-14,-512,0,526
-5,-643,0,648
17,-716,0,699
37,-818,0,781
63,-908,0,845
83,-955,0,872
94,-998,0,904
118,-1020,0,902
126,-1022,0,896
138,-990,0,852
155,-966,0,811
172,-918,0,746
171,-854,0,683
179,-785,0,606
181,-723,0,542
184,-618,0,434
194,-562,0,368
209,-498,0,289
207,-411,0,204
202,-323,0,121
193,-267,0,74
185,-216,0,31
181,-148,0,-33
166,-84,0,-82
147,-12,0,-135
152,10,0,-162
138,48,0,-186
135,102,0,-237
137,105,0,-242
126,116,0,-242
112,128,0,-240
85,125,0,-210
65,96,0,-161
29,112,0,-141
14,97,0,-111
15,78,0,-93
-4,84,0,-80
-9,57,0,-48
-31,111,0,-80
-49,109,0,-60
-54,112,0,-58
-46,104,0,-58
-63,78,0,-15
-59,65,0,-6
-49,84,-1,-34
-46,50,-1,-3
-51,78,-1,-26
-42,36,-2,8
-37,55,-2,-16
-53,73,-4,-16
-41,47,-4,-2
-34,40,-4,-2
-17,20,-7,4
-4,-28,-8,40
0,-19,-10,29
9,-21,-12,24
8,18,-14,-12
18,20,-15,-23
31,39,-17,-53
30,29,-17,-42
35,36,-18,-53
35,31,-19,-47
44,22,-20,-46
51,2,-22,-31
54,34,-24,-64
65,28,-26,-67
84,35,-29,-90
125,34,-36,-123
209,22,-50,-181
178,17,-50,-145
141,21,-45,-117
117,17,-46,-88
101,14,-45,-70
78,-8,-41,-29
62,13,-44,-31
45,-7,-46,8
31,-9,-46,24
18,-19,-44,45
9,-8,-43,42
0,-16,-40,56
-11,-20,-38,69
-16,-16,-44,76
-21,-39,-47,107
-27,-71,-45,143
-30,-76,-44,150
-38,-73,-44,155
-46,-84,-41,171
-47,-135,-39,221
-55,-140,-41,236
-59,-150,-44,253
-62,-152,-45,259
-63,-154,-45,262
-67,-162,-39,268
-73,-140,-37,250
-77,-119,-44,240
-79,-126,-39,244
-83,-93,-39,215
-85,-57,-47,189
-86,-17,-48,151
-87,8,-44,123
-88,59,-48,77
-86,88,-48,46
-88,158,-47,-23
-94,206,-39,-73
-92,250,-34,-124
-93,293,-38,-162
-92,327,-36,-199
-93,351,-41,-217
-94,372,-41,-237
-96,367,-36,-235
-94,381,-38,-249
-93,368,-32,-243
-93,366,-32,-241
-94,365,-32,-239
-95,340,-44,-201
-93,333,-39,-201
-92,294,-39,-163
-93,271,-45,-133
-93,232,-46,-93
-93,198,-45,-60
-90,163,-45,-28
-89,116,-48,21
-89,73,-46,62
-84,1,-46,129
-82,-44,-45,171
-82,-56,-45,183
-82,-73,-40,195
-79,-105,-41,225
-79,-122,-45,246
-77,-131,-43,251
-75,-116,-40,231
-75,-127,-44,246
-74,-130,-46,250
-70,-125,-46,241
-63,-131,-43,237
-57,-151,-46,254
-47,-98,-44,189
-42,-62,-46,150
-35,-70,-41,146
-27,-71,-44,142
-21,-33,-42,96
-12,-67,-44,123
-4,-68,-43,115
11,-66,-47,102
21,-40,-45,64
36,-47,-40,51
49,-21,-41,13
76,30,-50,-56
88,9,-42,-55
106,-12,-44,-50
119,7,-44,-82
152,5,-49,-108
182,-1,-47,-134
129,-4,-49,-76
90,3,-44,-49
83,16,-39,-60
67,22,-38,-51
71,3,-33,-41
51,16,-30,-37
36,11,-27,-20
20,23,-25,-18
2,8,-22,12
2,10,-21,9
-7,6,-20,21
7,5,-20,8
-2,6,-20,16
-17,36,-15,-4
-23,-3,-15,41
-41,12,-13,42
-54,2,-13,65
-59,22,-11,48
-65,44,-9,30
-80,45,-8,43
-65,48,-8,25
-56,49,-8,15
-77,61,-4,20
-91,128,-3,-34
-89,101,-2,-10
-66,81,-2,-13
-62,91,-1,-28
-52,112,-1,-59
-48,99,-1,-50
-40,100,-1,-59
-41,79,-1,-37
-30,121,-1,-90
-11,134,-1,-122
16,129,-1,-144
20,142,-1,-161
24,169,-1,-192
50,174,-1,-223
84,141,-1,-224
101,133,-1,-233
106,126,-1,-231
134,97,-1,-230
135,78,-1,-212
145,35,-1,-179
153,-20,-1,-132
149,-59,-1,-89
155,-101,-1,-53
155,-156,-1,2
167,-195,-1,29
173,-255,-1,83
179,-310,0,131
191,-379,0,188
191,-467,0,276
192,-553,0,361
191,-635,0,444
187,-722,0,535
178,-771,0,593
182,-848,0,666
180,-909,0,729
150,-932,0,782
149,-974,0,825
121,-996,0,875
96,-1010,0,914
91,-1012,0,921
66,-962,0,896
48,-937,0,889
29,-860,0,831
21,-790,0,769
15,-692,0,677
5,-565,0,560
-9,-443,0,452
-8,-331,0,339
-6,-209,0,215
-6,-79,0,85
2,-20,0,18
7,60,0,-67
6,115,0,-121
7,123,0,-130
8,123,0,-131
7,119,0,-126
9,118,0,-127
12,104,0,-116
13,93,0,-106
13,76,0,-89
14,56,0,-70
13,42,0,-55
8,38,0,-46
9,43,0,-52
16,48,0,-64
21,53,0,-74
21,65,0,-86
17,86,0,-103
15,98,0,-113
16,122,0,-138
8,133,0,-141
3,131,0,-134
-6,133,0,-127
-7,93,0,-86
-9,27,0,-18
-18,-35,0,53
-24,-110,0,134
-25,-201,0,226
-26,-306,0,332
-18,-404,0,422
-21,-518,0,539
-12,-589,0,601
8,-684,0,676
35,-782,0,747
62,-849,0,787
78,-890,0,812
94,-913,0,819
117,-938,0,821
123,-934,0,811
132,-891,0,759
166,-873,0,707
170,-807,0,637
175,-745,0,570
186,-685,0,499
195,-617,0,422
197,-549,0,352
210,-513,0,303
218,-432,0,214
225,-376,0,151
216,-336,0,120
205,-263,0,58
205,-179,0,-26
195,-125,-1,-69
172,-58,-1,-113
164,-44,-1,-119
161,16,-1,-176
144,64,-1,-207
154,42,-1,-195
148,68,-1,-215
136,93,-1,-228
117,101,-1,-217
95,88,-1,-182
70,72,-1,-141
57,51,-1,-107
42,46,-1,-87
41,68,-1,-108
7,49,-1,-55
9,66,-1,-74
8,87,-1,-94
-16,70,-1,-53
-8,58,-1,-49
-9,53,-1,-43
-17,42,-1,-24
-9,29,-1,-19
-6,13,-4,-3
-15,72,-4,-53
4,13,-4,-13
9,2,-5,-6
1,20,-5,-16
0,-22,-7,29
0,-15,-7,22
18,-23,-7,12
26,-49,-11,34
37,-65,-12,40
42,-40,-14,12
39,-42,-18,21
50,-9,-20,-21
72,6,-21,-57
86,3,-24,-65
74,23,-24,-73
83,12,-26,-69
70,32,-28,-74
81,7,-29,-59
99,-5,-31,-63
96,15,-33,-78
113,5,-38,-80
137,-22,-41,-74
177,3,-49,-131
264,-33,-65,-166
225,-14,-61,-150
186,-3,-60,-123
161,7,-60,-108
136,-3,-58,-75
118,12,-51,-79
97,47,-56,-88
79,25,-59,-45
60,0,-57,-3
44,-3,-56,15
38,29,-52,-15
25,17,-49,7
15,0,-49,34
4,-28,-50,74
-4,-16,-55,75
-15,-23,-54,92
-20,-47,-54,121
-29,-69,-54,152
-33,-115,-47,195
-42,-125,-49,216
-50,-136,-50,236
-50,-154,-52,256
-55,-174,-56,285
-59,-180,-52,291
-63,-149,-50,262
-63,-148,-46,257
-66,-160,-56,282
-65,-135,-49,249
-67,-116,-47,230
-65,-76,-54,195
-68,-18,-57,143
-68,8,-60,120
-67,66,-58,59
-69,102,-62,29
-68,165,-55,-42
-68,208,-46,-94
-68,236,-40,-128
-72,273,-42,-159
-69,316,-46,-201
-71,313,-44,-198
-74,353,-42,-237
-74,368,-43,-251
-74,353,-40,-239
-70,345,-34,-241
-72,326,-32,-222
-73,355,-36,-246
-74,334,-45,-215
-75,298,-44,-179
-74,269,-47,-148
-75,243,-57,-111
-73,209,-56,-80
-73,144,-57,-14
-75,101,-60,34
-73,51,-59,81
-71,26,-56,101
-72,-3,-57,132
-72,-36,-55,163
-68,-64,-50,182
-68,-83,-53,204
-66,-129,-51,246
-67,-186,-52,305
-66,-165,-51,282
-63,-181,-47,291
-60,-164,-54,278
-59,-134,-56,249
-58,-103,-60,221
-52,-56,-56,164
-44,-60,-56,160
-38,-63,-59,160
-30,-70,-58,158
-21,-44,-51,116
-13,-40,-46,99
3,4,-55,48
12,8,-55,35
23,5,-55,27
30,43,-61,-12
50,26,-56,-20
56,26,-46,-36
77,10,-45,-42
101,0,-52,-49
133,42,-56,-119
144,58,-56,-146
172,12,-55,-129
206,-32,-57,-117
232,10,-61,-181
167,-20,-58,-89
122,-20,-54,-48
120,-15,-48,-57
102,-33,-46,-23
104,-15,-39,-50
87,-13,-35,-39
63,-34,-31,2
61,-2,-29,-30
38,33,-25,-46
36,19,-24,-31
26,15,-23,-18
43,-16,-23,-4
42,-21,-23,2
17,-6,-17,6
13,-2,-17,6
8,-24,-15,31
4,-25,-15,36
-5,7,-13,11
-11,33,-11,-11
-41,50,-10,1
-23,24,-10,9
-8,44,-9,-27
-18,39,-5,-16
-36,71,-4,-31
-40,88,-3,-45
-34,86,-3,-49
-17,83,-2,-64
-2,78,-2,-74
-3,114,-2,-109
6,75,-2,-79
4,94,-2,-96
15,71,-2,-84
14,111,-2,-123
32,144,-2,-174
45,112,-2,-155
58,171,-2,-227
62,155,-2,-215
86,146,-2,-230
114,136,-2,-248
120,113,-2,-231
143,92,-2,-233
139,63,-2,-200
158,56,-2,-212
169,22,-2,-189
172,-52,-2,-118
166,-96,-2,-68
165,-115,-2,-48
181,-188,-2,9
189,-203,-2,16
195,-286,-1,92
207,-335,-1,129
202,-405,-1,204
199,-466,-1,268
210,-554,-1,345
203,-633,-1,431
195,-687,-1,493
190,-739,-1,550
187,-811,-1,625
158,-852,-1,695
153,-868,-1,716
131,-878,-1,748
107,-910,-1,804
85,-882,-1,798
58,-890,-1,833
44,-839,-1,796
21,-792,-1,772
18,-731,-1,714
9,-667,-1,659
-1,-565,0,566
-13,-431,0,444
-18,-330,0,348
-16,-219,0,235
-8,-119,0,127
-5,-12,0,17
3,34,0,-37
4,101,0,-105
3,140,0,-143
4,141,0,-145
7,137,0,-144
5,130,0,-135
6,121,0,-127
12,108,0,-120
10,94,0,-104
11,77,0,-88
10,58,0,-68
8,46,0,-54
5,56,0,-61
15,56,0,-71
18,67,0,-85
15,88,0,-103
14,99,0,-113
14,124,0,-138
8,140,0,-148
6,143,0,-149
-6,152,0,-146
-9,124,0,-115
-13,76,0,-63
-19,22,0,-3
-26,-46,0,72
-30,-113,0,143
-30,-216,0,246
-31,-300,0,331
-27,-389,0,416
-28,-484,0,512
-21,-558,0,579
6,-660,0,654
30,-726,0,696
51,-781,0,730
76,-800,0,724
92,-851,0,759
112,-847,0,735
117,-827,0,710
141,-837,0,696
160,-775,0,615
165,-737,0,572
175,-683,0,508
189,-645,0,456
201,-566,0,365
206,-533,0,327
212,-482,0,270
231,-439,0,208
222,-381,0,159
209,-311,0,102
210,-242,0,32
197,-200,0,3
187,-138,-1,-48
171,-78,-1,-92
160,-46,-1,-113
151,-4,-1,-146
155,-8,-1,-146
152,0,-1,-151
150,32,-1,-181
134,70,-1,-203
107,41,-1,-147
95,30,-1,-124
89,-4,-1,-84
73,14,-1,-86
57,30,-1,-86
49,31,-1,-79
24,17,-1,-40
23,49,-1,-71
10,19,-1,-28
9,33,-1,-41
17,19,-1,-35
20,3,-1,-22
11,6,-1,-16
4,39,-1,-42
5,7,-4,-8
9,5,-4,-10
32,-43,-4,15
10,12,-5,-17
7,-23,-5,21
9,-57,-7,55
6,-51,-7,52
25,-93,-7,75
32,-75,-11,54
51,-46,-12,7
37,-44,-14,21
42,1,-18,-25
44,1,-20,-25
62,-16,-23,-23
70,20,-27,-63
59,-1,-28,-30
61,-37,-30,6
52,-31,-32,11
62,-27,-33,-2
83,-13,-37,-33
85,-44,-41,0
108,-60,-47,-1
127,-53,-51,-23
172,-19,-60,-93
267,-56,-79,-132
213,-51,-74,-88
177,-17,-72,-88
149,0,-63,-86
130,5,-62,-73
95,57,-58,-94
82,13,-63,-32
55,-12,-66,23
35,26,-61,0
23,29,-59,7
16,19,-55,20
0,10,-53,43
-11,-6,-54,71
-24,23,-60,61
-29,12,-62,79
-39,-26,-61,126
-51,-35,-63,149
-59,-56,-61,176
-66,-88,-56,210
-71,-105,-58,234
-73,-110,-54,237
-78,-139,-55,272
-77,-205,-65,347
-80,-202,-57,339
-81,-186,-54,321
-83,-186,-55,324
-84,-153,-50,287
-87,-104,-54,245
-86,-104,-53,243
-85,-54,-62,201
-86,-8,-64,158
-87,21,-67,133
-90,52,-67,105
-91,115,-69,45
-89,148,-64,5
-85,201,-49,-67
-84,246,-40,-122
-86,280,-33,-161
-86,337,-45,-206
-84,345,-33,-228
-87,374,-40,-247
-85,407,-43,-279
-86,396,-37,-273
-87,394,-30,-277
-91,399,-30,-278
-85,356,-34,-237
-87,320,-39,-194
-90,306,-40,-176
-92,278,-49,-137
-89,246,-54,-103
-92,197,-62,-43
-91,169,-58,-20
-93,102,-67,58
-95,65,-62,92
-96,7,-66,155
-98,-27,-63,188
-99,-41,-62,202
-97,-77,-58,232
-93,-84,-54,231
-89,-116,-57,262
-88,-138,-54,280
-85,-143,-55,283
-80,-151,-58,289
-78,-144,-59,281
-76,-123,-65,264
-75,-107,-67,249
-69,-73,-66,208
-65,-42,-66,173
-56,-28,-67,151
-52,-1,-66,119
-44,20,-58,82
-30,25,-54,59
-21,0,-59,80
-11,49,-58,20
0,54,-62,8
19,47,-65,-1
33,37,-59,-11
48,77,-49,-76
67,61,-55,-73
90,26,-55,-61
126,15,-63,-78
144,33,-53,-124
180,3,-56,-127
214,7,-60,-161
260,1,-70,-191
166,-2,-64,-100
116,-19,-60,-37
105,-26,-55,-24
100,-46,-53,-1
114,-50,-46,-18
97,-48,-41,-8
69,-52,-35,18
63,-48,-32,17
54,-45,-28,19
47,-16,-27,-4
32,-17,-26,11
30,-17,-26,13
39,-12,-25,-2
28,-36,-19,27
13,-26,-19,32
16,-6,-17,7
17,-19,-17,19
0,-56,-15,71
-12,5,-12,19
-26,-4,-11,41
-16,0,-11,27
4,0,-10,6
-5,44,-5,-34
-17,32,-4,-11
-16,79,-3,-60
-10,36,-3,-23
-9,41,-2,-30
18,37,-2,-53
18,38,-2,-54
31,63,-2,-92
25,38,-2,-61
24,26,-2,-48
36,73,-2,-107
36,75,-2,-109
50,91,-2,-139
62,75,-2,-135
72,101,-2,-171
80,94,-2,-172
101,95,-2,-194
117,80,-2,-195
135,54,-2,-187
131,42,-2,-171
150,16,-2,-164
161,-24,-2,-135
169,-40,-2,-127
170,-119,-2,-49
164,-160,-2,-2
175,-193,-2,20
184,-240,-2,58
193,-274,-1,82
205,-326,-1,122
200,-388,-1,189
189,-445,-1,257
190,-482,-1,293
196,-569,-1,374
196,-647,-1,452
184,-692,-1,509
182,-729,-1,548
159,-787,-1,629
150,-789,-1,640
123,-807,-1,685
105,-807,-1,703
86,-801,-1,716
48,-779,-1,732
33,-777,-1,745
13,-724,-1,712
0,-675,-1,676
-3,-610,-1,614
-9,-548,0,557
-17,-451,0,468
-26,-333,0,359
-25,-227,0,252
-18,-141,0,159
-8,-39,0,47
-3,27,0,-24
1,82,0,-83
4,128,0,-132
4,155,0,-159
4,150,0,-154
6,143,0,-149
6,132,0,-138
6,120,0,-126
11,106,0,-117
11,92,0,-103
8,79,0,-87
6,58,0,-64
4,65,0,-69
13,69,0,-82
13,88,0,-101
14,102,0,-116
12,130,0,-142
8,151,0,-159
6,159,0,-165
0,170,0,-170
-11,159,0,-148
-15,137,0,-122
-19,81,0,-62
-28,21,0,7
-31,-31,0,62
-36,-114,0,150
-37,-195,0,232
-41,-281,0,322
-35,-353,0,388
-41,-438,0,479
-25,-532,0,557
-7,-593,0,600
18,-656,0,638
45,-683,0,638
68,-715,0,647
77,-739,0,662
101,-754,0,653
121,-761,0,640
138,-737,0,599
155,-711,0,556
164,-655,0,491
177,-644,0,467
193,-584,0,391
198,-534,0,336
202,-504,0,302
213,-474,0,261
219,-415,0,196
209,-346,0,137
207,-302,0,95
208,-237,0,29
195,-183,0,-12
186,-136,-1,-49
170,-96,-1,-73
147,-37,-1,-109
165,-41,-1,-123
155,-18,-1,-136
153,11,-1,-163
141,26,-1,-166
131,25,-1,-155
115,18,-1,-132
99,27,-1,-125
105,5,-1,-109
86,15,-1,-100
64,32,-1,-95
63,16,-1,-78
34,32,-1,-65
36,59,-1,-94
29,34,-1,-62
29,58,-1,-86
52,6,-1,-57
47,31,-1,-77
28,58,-1,-85
28,11,-1,-38
38,5,-4,-39
46,-28,-4,-14
48,-3,-4,-41
37,-16,-5,-16
32,-38,-5,11
22,-28,-7,13
35,-21,-7,-7
42,-25,-7,-10
55,-13,-12,-30
69,10,-13,-66
51,24,-15,-60
52,30,-19,-63
68,7,-22,-53
81,-10,-27,-44
90,-23,-31,-36
80,-31,-32,-17
86,-16,-34,-36
78,-12,-36,-30
87,-22,-37,-28
109,-46,-43,-20
109,-39,-48,-22
124,-39,-55,-30
140,29,-60,-109
200,10,-70,-140
282,-16,-89,-177
246,-27,-85,-134
207,3,-80,-130
166,38,-69,-135
137,70,-64,-143
105,50,-63,-92
83,39,-68,-54
65,48,-67,-46
47,43,-67,-23
34,55,-62,-27
11,34,-57,12
0,79,-54,-25
-18,54,-57,21
-27,63,-60,24
-37,31,-60,66
-39,41,-63,61
-50,24,-63,89
-59,-53,-60,172
-61,-70,-62,193
-71,-72,-56,199
-79,-108,-54,241
-80,-145,-56,281
-82,-194,-59,335
-85,-181,-53,319
-87,-124,-55,266
-88,-135,-59,282
-91,-102,-47,240
-92,-100,-53,245
-92,-105,-59,256
-88,-75,-57,220
-93,-51,-69,213
-90,10,-72,152
-94,72,-74,96
-97,141,-71,27
-91,190,-58,-41
-92,232,-48,-92
-92,246,-41,-113
-90,313,-39,-184
-89,359,-33,-237
-90,377,-34,-253
-92,396,-30,-274
-92,400,-26,-282
-96,419,-30,-293
-90,399,-24,-285
-94,402,-22,-286
-94,400,-25,-281
-94,383,-22,-267
-95,356,-40,-221
-92,314,-45,-177
-96,276,-56,-124
-92,209,-61,-56
-94,167,-65,-8
-93,85,-66,74
-90,31,-72,131
-91,3,-68,156
-89,-43,-67,199
-90,-73,-66,229
-88,-84,-55,227
-89,-119,-56,264
-89,-152,-58,299
-86,-186,-52,324
-80,-211,-53,344
-77,-160,-57,294
-73,-176,-63,312
-63,-144,-72,279
-60,-105,-64,229
-58,-73,-70,201
-54,-29,-69,152
-49,-27,-72,148
-42,-31,-70,143
-33,0,-59,92
-27,57,-60,30
-19,55,-58,22
-8,60,-65,13
5,87,-69,-23
20,61,-63,-18
27,86,-54,-59
56,47,-55,-48
71,44,-46,-69
96,75,-49,-122
126,52,-62,-116
160,38,-60,-138
190,24,-59,-155
240,14,-69,-185
283,-30,-78,-175
178,21,-74,-125
133,11,-68,-76
116,27,-64,-79
107,-12,-60,-35
117,-57,-53,-7
97,-61,-47,11
76,-58,-41,23
63,-36,-38,11
71,-21,-33,-17
49,-10,-32,-7
38,0,-31,-7
30,-5,-31,6
45,-29,-30,14
31,-31,-24,24
14,-36,-22,44
13,-10,-20,17
27,-11,-18,2
23,-35,-16,28
2,-14,-13,25
-16,-7,-11,34
-4,1,-11,14
0,-13,-10,23
6,18,-5,-19
-4,10,-4,-2
5,50,-3,-52
6,56,-3,-59
6,13,-2,-17
27,24,-2,-49
33,8,-2,-39
47,27,-2,-72
42,23,-2,-63
42,45,-2,-85
55,17,-2,-70
54,31,-2,-83
58,68,-2,-124
68,81,-2,-147
81,49,-2,-128
90,76,-2,-164
100,59,-2,-157
112,62,-2,-172
132,39,-2,-169
123,-4,-2,-117
139,-6,-2,-131
156,-22,-2,-132
161,-77,-2,-82
174,-112,-2,-60
166,-165,-2,1
176,-188,-2,14
179,-230,-2,53
181,-280,-1,100
201,-339,-1,139
200,-352,-1,153
191,-430,-1,240
183,-478,-1,296
187,-512,-1,326
196,-579,-1,384
186,-646,-1,461
184,-693,-1,510
155,-698,-1,544
145,-745,-1,601
121,-724,-1,604
97,-729,-1,633
81,-708,-1,628
46,-671,-1,626
22,-644,-1,623
-2,-639,-1,642
-7,-591,-1,599
-19,-550,-1,570
-16,-497,0,513
-26,-410,0,436
-30,-317,0,347
-33,-226,0,259
-24,-134,0,158
-18,-48,0,66
-11,46,0,-35
-1,80,0,-79
2,131,0,-133
4,153,0,-157
3,171,0,-174
4,167,0,-171
9,143,0,-152
8,134,0,-142
8,123,0,-131
11,106,0,-117
8,92,0,-100
4,80,0,-84
3,76,0,-79
9,89,0,-98
13,100,0,-113
14,126,0,-140
11,154,0,-165
6,164,0,-170
2,183,0,-185
-10,182,0,-172
-12,176,0,-164
-16,128,0,-112
-29,72,0,-43
-32,30,0,2
-34,-36,0,70
-42,-109,0,151
-47,-184,0,231
-54,-236,0,290
-48,-335,0,383
-50,-419,0,469
-35,-471,0,506
-15,-538,0,553
10,-574,0,564
36,-613,0,577
57,-653,0,596
68,-657,0,589
97,-681,0,584
113,-673,0,560
123,-656,0,533
141,-620,0,479
161,-609,0,448
164,-563,0,399
182,-521,0,339
190,-515,0,325
197,-491,0,294
202,-435,0,233
200,-368,0,168
202,-349,0,147
194,-269,0,75
187,-232,0,45
181,-177,0,-4
171,-138,-1,-32
143,-98,-1,-44
157,-96,-1,-60
156,-54,-1,-101
141,-48,-1,-92
127,-5,-1,-121
131,-9,-1,-121
127,-15,-1,-111
104,-9,-1,-94
95,-31,-1,-63
95,-31,-1,-63
85,-42,-1,-42
61,-7,-1,-53
59,-24,-1,-34
36,39,-1,-74
39,4,-1,-42
49,26,-1,-74
67,11,-1,-77
64,19,-1,-82
66,15,-1,-80
45,-1,-1,-43
42,-8,-1,-33
59,-25,-4,-30
57,-15,-4,-38
41,21,-4,-58
36,-11,-5,-20
35,-16,-5,-14
31,-8,-7,-16
37,-14,-7,-16
57,-42,-7,-8
75,-11,-13,-51
71,-35,-14,-22
59,-18,-16,-25
78,-55,-20,-3
78,-34,-23,-21
92,-26,-28,-38
105,-63,-32,-10
88,-26,-33,-29
100,-37,-35,-28
85,-57,-38,10
102,-28,-40,-34
116,-50,-47,-19
118,-20,-52,-46
116,-12,-60,-44
147,15,-67,-95
185,-24,-78,-83
287,-8,-101,-178
253,10,-97,-166
209,43,-88,-164
169,33,-75,-127
134,59,-65,-128
108,55,-68,-95
78,22,-69,-31
52,43,-61,-34
35,67,-68,-34
29,75,-61,-43
3,69,-57,-15
-12,76,-54,-10
-15,70,-65,10
-32,82,-64,14
-43,48,-64,59
-49,41,-69,77
-59,-7,-61,127
-67,-27,-63,157
-70,-65,-70,205
-76,-116,-61,253
-78,-152,-63,293
-82,-165,-58,305
-84,-179,-55,318
-90,-158,-57,305
-95,-157,-61,313
-96,-133,-58,287
-96,-135,-54,285
-106,-90,-57,253
-109,-77,-60,246
-111,-33,-58,202
-111,-1,-72,184
-111,28,-78,161
-110,109,-77,78
-106,145,-73,34
-106,193,-59,-28
-109,247,-49,-89
-109,279,-40,-130
-110,316,-39,-167
-110,359,-26,-223
-113,383,-22,-248
-111,415,-27,-277
-115,445,-23,-307
-114,462,-19,-329
-112,431,-21,-298
-112,425,-18,-295
-111,427,-20,-296
-108,392,-17,-267
-112,380,-28,-240
-113,366,-43,-210
-115,313,-54,-144
-115,264,-57,-92
-114,196,-68,-14
-116,127,-70,59
-115,87,-76,104
-111,26,-76,161
-108,-31,-72,211
-102,-68,-68,238
-94,-82,-61,237
-94,-108,-56,258
-86,-113,-63,262
-83,-151,-53,287
-81,-158,-49,288
-79,-193,-59,331
-79,-203,-68,350
-75,-171,-74,320
-70,-144,-68,282
-65,-88,-74,227
-55,-16,-74,145
-51,21,-75,105
-49,22,-68,95
-37,20,-68,85
-38,40,-61,59
-25,29,-62,58
-15,31,-68,52
-1,59,-68,10
5,50,-60,5
20,61,-53,-28
41,56,-61,-36
57,53,-48,-62
79,33,-52,-60
106,41,-60,-87
154,7,-62,-99
191,4,-61,-134
234,-31,-72,-131
284,-35,-82,-167
184,-19,-82,-83
127,-38,-76,-13
122,-57,-73,8
107,-10,-69,-28
122,-48,-62,-12
112,-80,-56,24
98,-64,-50,16
94,-65,-47,18
90,-100,-41,51
89,-46,-38,-5
64,-2,-36,-26
67,-21,-36,-10
64,-30,-34,0
63,-9,-28,-26
50,-1,-26,-23
48,-44,-24,20
56,4,-22,-38
67,-29,-20,-18
53,-47,-16,10
27,7,-14,-20
25,-7,-13,-5
34,-8,-11,-15
35,7,-6,-36
17,-2,-5,-10
15,-5,-3,-7
37,22,-3,-56
37,21,-2,-56
32,20,-2,-50
35,9,-2,-42
59,-15,-2,-42
66,-14,-2,-50
65,-27,-2,-36
61,-10,-2,-49
68,-12,-2,-54
74,-10,-2,-62
72,20,-2,-90
77,22,-2,-97
95,25,-2,-118
118,-10,-2,-106
107,22,-2,-127
139,0,-2,-137
131,-13,-2,-116
137,-40,-2,-95
152,-45,-2,-105
159,-105,-2,-52
163,-132,-2,-29
173,-183,-2,12
181,-202,-2,23
176,-258,-2,84
180,-291,-1,112
196,-321,-1,126
201,-372,-1,172
193,-374,-1,182
191,-444,-1,254
178,-485,-1,308
186,-523,-1,338
191,-583,-1,393
178,-616,-1,439
153,-658,-1,506
137,-642,-1,506
112,-665,-1,554
93,-647,-1,555
66,-621,-1,556
39,-606,-1,568
15,-570,-1,556
-9,-535,-1,545
-25,-523,-1,549
-36,-498,-1,535
-37,-432,0,469
-38,-387,0,425
-39,-298,0,337
-38,-209,0,247
-32,-130,0,162
-26,-51,0,77
-21,39,0,-18
-12,94,0,-82
0,129,0,-129
2,164,0,-166
5,174,0,-179
3,185,0,-188
8,171,0,-179
10,150,0,-160
7,134,0,-141
7,121,0,-128
7,108,0,-115
4,93,0,-97
-2,96,0,-94
6,104,0,-110
14,120,0,-134
11,152,0,-163
9,171,0,-180
3,197,0,-200
-3,202,0,-199
-12,212,0,-200
-18,197,0,-179
-23,133,0,-110
-36,90,0,-54
-36,49,0,-13
-42,-18,0,60
-50,-88,0,138
-61,-131,0,192
-65,-225,0,290
-59,-285,0,344
-59,-341,0,400
-51,-423,0,474
-27,-459,0,486
1,-481,0,480
17,-520,0,503
43,-540,0,497
56,-582,0,526
88,-583,0,495
93,-593,0,500
112,-558,0,446
142,-584,0,442
153,-557,0,404
163,-522,0,359
181,-502,0,321
191,-484,0,293
184,-447,0,263
183,-373,0,190
198,-377,0,179
194,-306,0,112
191,-266,0,75
188,-231,0,43
175,-172,0,-3
159,-160,-1,2
157,-132,-1,-24
154,-98,-1,-55
146,-96,-1,-49
128,-53,-1,-74
129,-58,-1,-70
134,-51,-1,-82
114,-35,-1,-78
91,-33,-1,-57
97,-59,-1,-37
99,-48,-1,-50
79,-19,-1,-59
67,-26,-1,-40
59,-6,-1,-52
43,5,-1,-47
42,40,-1,-81
58,26,-1,-83
64,11,-1,-74
71,3,-1,-73
53,28,-1,-80
47,-6,-1,-40
40,29,-2,-67
44,40,-5,-79
40,47,-5,-82
42,3,-5,-40
37,14,-6,-45
29,8,-7,-30
40,15,-9,-46
31,-29,-9,7
50,-14,-9,-27
54,-13,-15,-26
60,-1,-16,-43
56,1,-18,-39
70,-1,-24,-45
76,-4,-27,-45
82,-16,-33,-33
87,-32,-37,-18
89,-10,-39,-40
92,-11,-41,-40
88,-10,-44,-34
86,-3,-47,-36
103,-3,-55,-45
88,-1,-61,-26
92,10,-70,-32
130,33,-79,-84
155,23,-89,-89
293,-22,-115,-156
243,0,-109,-134
196,29,-94,-131
153,73,-76,-150
116,30,-70,-76
79,50,-71,-58
53,72,-63,-62
32,64,-67,-29
15,77,-68,-24
-2,56,-67,13
-18,114,-58,-38
-34,100,-57,-9
-42,97,-67,12
-51,66,-62,47
-62,43,-65,84
-66,26,-67,107
-75,-20,-66,161
-82,-48,-65,195
-96,-36,-62,194
-101,-79,-65,245
-101,-128,-62,291
-106,-159,-60,325
-110,-144,-56,310
-109,-151,-60,320
-119,-176,-54,349
-125,-171,-57,353
-125,-164,-58,347
-129,-148,-56,333
-129,-85,-59,273
-129,-42,-65,236
-135,-24,-74,233
-137,32,-79,184
-137,101,-77,113
-137,157,-69,49
-139,170,-61,30
-138,219,-45,-36
-139,276,-40,-97
-139,320,-33,-148
-143,358,-22,-193
-140,380,-16,-224
-137,406,-20,-249
-139,421,-15,-267
-138,456,-4,-314
-140,427,-10,-277
-140,439,-7,-292
-139,426,-9,-278
-140,399,-22,-237
-143,368,-25,-200
-138,322,-43,-141
-134,280,-52,-94
-133,266,-58,-75
-135,229,-63,-31
-132,175,-77,34
-131,111,-79,99
-134,70,-79,143
-132,-7,-74,213
-134,-49,-69,252
-128,-92,-63,283
-129,-120,-60,309
-120,-133,-55,308
-119,-130,-54,303
-113,-159,-49,321
-102,-204,-57,363
-102,-160,-71,333
-97,-150,-73,320
-91,-146,-75,312
-89,-106,-77,272
-80,-44,-78,202
-75,40,-78,113
-71,49,-75,97
-68,46,-73,95
-58,76,-67,49
-49,86,-68,31
-43,64,-60,39
-25,70,-68,23
-16,96,-60,-20
0,66,-58,-8
16,66,-51,-31
36,65,-54,-47
51,64,-56,-59
84,18,-51,-51
124,31,-60,-95
180,21,-69,-132
222,26,-77,-171
270,-7,-89,-174
170,-21,-86,-63
105,50,-83,-72
106,-18,-76,-12
91,-23,-75,7
111,-25,-68,-18
99,-33,-61,-5
81,-29,-54,2
70,-26,-49,5
72,-39,-43,10
83,-31,-40,-12
60,-3,-38,-19
58,21,-38,-41
60,-26,-35,1
61,-7,-29,-25
53,11,-27,-37
40,3,-25,-18
41,-7,-23,-11
58,6,-21,-43
41,-18,-16,-7
25,0,-14,-11
29,25,-13,-41
23,35,-11,-47
25,43,-6,-62
18,60,-5,-73
5,36,-3,-38
27,19,-3,-43
35,40,-2,-73
40,16,-2,-54
40,31,-2,-69
57,22,-2,-77
64,25,-2,-87
67,-14,-2,-51
62,-10,-2,-50
63,-21,-2,-40
67,-27,-2,-38
71,-19,-2,-50
75,-6,-2,-67
81,36,-2,-115
96,15,-2,-109
104,-5,-2,-97
122,-4,-2,-116
109,-51,-2,-56
124,-64,-2,-58
130,-61,-2,-67
144,-98,-2,-44
152,-149,-2,-1
153,-171,-2,20
167,-226,-2,61
176,-232,-2,58
169,-288,-1,120
181,-310,-1,130
180,-366,-1,187
179,-360,-1,182
180,-391,-1,212
175,-452,-1,278
167,-488,-1,322
175,-517,-1,343
176,-564,-1,389
143,-596,-1,454
128,-583,-1,456
101,-567,-1,467
85,-578,-1,494
65,-558,-1,494
27,-504,-1,478
8,-475,-1,468
-18,-448,-1,467
-32,-421,-1,454
-45,-402,-1,448
-50,-378,0,428
-50,-324,0,374
-50,-256,0,306
-48,-190,0,238
-38,-107,0,145
-29,-32,0,61
-27,36,0,-9
-21,114,0,-93
-7,146,0,-139
1,176,0,-177
3,190,0,-193
5,189,0,-194
6,191,0,-197
11,171,0,-182
9,153,0,-162
6,136,0,-142
2,124,0,-126
1,112,0,-113
0,104,0,-104
9,120,0,-129
12,148,0,-160
11,172,0,-183
7,202,0,-209
1,209,0,-210
-9,232,0,-223
-13,230,0,-217
-16,183,0,-167
-33,142,0,-109
-39,111,0,-72
-40,55,0,-15
-47,-2,0,49
-60,-34,0,94
-70,-107,0,177
-71,-195,0,266
-68,-247,0,315
-67,-309,0,376
-54,-357,0,411
-32,-369,0,401
-13,-407,0,420
12,-433,0,421
32,-481,0,449
48,-489,0,441
72,-521,0,449
90,-516,0,426
112,-524,0,412
133,-520,0,387
146,-522,0,376
164,-484,0,320
179,-494,0,315
181,-453,0,272
182,-416,0,234
184,-401,0,217
194,-370,0,176
197,-294,0,97
184,-261,0,77
177,-221,0,44
162,-203,0,41
168,-179,-1,12
159,-140,-1,-18
151,-142,-1,-8
142,-90,-1,-51
131,-84,-1,-46
141,-53,-1,-87
131,-62,-1,-68
116,-63,-1,-52
107,-87,-1,-19
112,-58,-1,-53
116,-49,-1,-66
101,-52,-1,-48
75,-44,-1,-30
77,3,-1,-79
41,-3,-2,-36
62,6,-2,-66
89,0,-2,-87
76,11,-2,-85
81,10,-2,-89
73,10,-2,-81
54,20,-2,-72
46,41,-3,-84
69,17,-7,-79
53,34,-7,-80
49,22,-7,-64
52,10,-8,-54
49,-9,-9,-31
47,-18,-11,-18
52,-34,-12,-6
59,-12,-12,-35
68,-3,-19,-46
76,-7,-20,-49
81,-19,-22,-40
89,-22,-28,-39
87,-3,-32,-52
92,-30,-38,-24
99,-9,-42,-48
99,0,-44,-55
93,-22,-46,-25
86,11,-49,-48
83,-3,-53,-27
97,-15,-62,-20
88,-5,-68,-15
104,51,-79,-76
121,12,-89,-44
169,16,-97,-88
310,10,-127,-193
271,35,-119,-187
214,69,-99,-184
166,59,-84,-141
132,44,-70,-106
90,9,-69,-30
65,15,-61,-19
39,72,-62,-49
22,82,-58,-46
7,104,-62,-49
-4,72,-56,-12
-13,74,-57,-4
-29,66,-66,29
-39,53,-65,51
-49,44,-69,74
-58,32,-68,94
-70,33,-64,101
-78,7,-65,136
-86,-21,-63,170
-91,-63,-67,221
-97,-115,-65,277
-103,-121,-53,277
-103,-150,-50,303
-105,-140,-59,304
-115,-145,-51,311
-118,-172,-54,344
-123,-154,-57,334
-127,-121,-55,303
-131,-87,-62,280
-133,-55,-65,253
-141,1,-72,212
-142,50,-75,167
-144,102,-73,115
-154,184,-66,36
-156,220,-60,-4
-156,266,-43,-67
-157,298,-33,-108
-153,324,-27,-144
-151,362,-12,-199
-152,404,-6,-246
-155,417,-4,-258
-152,430,-3,-275
-146,430,5,-289
-149,424,5,-280
-150,431,0,-281
-144,381,3,-240
-144,392,-14,-234
-141,393,-22,-230
-143,348,-31,-174
-140,310,-46,-124
-140,262,-52,-70
-138,195,-56,-1
-132,136,-67,63
-129,83,-78,124
-128,54,-80,154
-125,18,-77,184
-121,-20,-66,207
-118,-64,-58,240
-116,-102,-60,278
-119,-134,-49,302
-116,-160,-51,327
-113,-180,-51,344
-108,-189,-59,356
-101,-184,-60,345
-100,-144,-75,319
-95,-127,-77,299
-80,-112,-79,271
-75,-35,-82,192
-67,-13,-82,162
-54,14,-80,120
-55,46,-75,84
-45,60,-70,55
-31,64,-64,31
-22,67,-64,19
-12,48,-64,28
1,100,-56,-45
13,90,-52,-51
28,58,-51,-35
46,78,-54,-70
67,66,-50,-83
99,32,-46,-85
136,18,-59,-95
194,4,-71,-127
247,1,-80,-168
292,-6,-93,-193
172,22,-93,-101
124,-4,-90,-30
96,22,-83,-35
106,-55,-83,32
116,-36,-75,-5
106,-49,-68,11
100,-57,-61,18
89,-35,-55,1
84,-45,-49,10
94,-35,-44,-15
85,-31,-42,-12
79,-4,-41,-34
80,-2,-38,-40
71,-20,-32,-19
71,-33,-30,-8
60,10,-28,-42
64,-30,-26,-8
81,-12,-24,-45
67,-2,-19,-46
53,-19,-17,-17
54,11,-16,-49
49,5,-14,-40
39,40,-7,-72
29,29,-6,-52
19,47,-4,-62
31,29,-4,-56
51,52,-3,-100
59,11,-3,-67
49,-4,-2,-43
57,20,-2,-75
65,-4,-2,-59
73,12,-2,-83
74,-14,-2,-58
68,-36,-2,-30
81,-24,-2,-55
81,-42,-2,-37
89,-14,-2,-73
89,-35,-2,-52
102,0,-2,-100
114,-20,-2,-92
135,-13,-2,-120
117,-13,-2,-102
125,-63,-2,-60
141,-102,-2,-37
142,-88,-2,-52
152,-149,-2,-1
150,-173,-2,25
164,-213,-2,51
173,-268,-2,97
177,-275,-1,99
179,-318,-1,140
181,-347,-1,167
177,-378,-1,202
178,-397,-1,220
171,-414,-1,244
165,-455,-1,291
162,-480,-1,319
172,-496,-1,325
141,-526,-1,386
124,-550,-1,427
91,-513,-1,423
72,-497,-1,426
58,-500,-1,443
22,-442,-1,421
-7,-404,-1,412
-31,-375,-1,407
-46,-338,-1,385
-60,-327,-1,388
-66,-314,0,380
-75,-265,0,340
-68,-229,0,297
-59,-161,0,220
-50,-79,0,129
-40,-17,0,57
-32,59,0,-27
-30,120,0,-90
-15,166,0,-151
-7,195,0,-188
-1,215,0,-214
2,210,0,-212
6,204,0,-210
7,199,0,-206
9,180,0,-189
6,154,0,-160
0,139,0,-139
-3,126,0,-123
2,124,0,-126
8,149,0,-157
12,169,0,-181
11,202,0,-213
8,216,0,-224
-6,243,0,-237
-10,250,0,-240
-14,231,0,-217
-23,181,0,-158
-37,157,0,-120
-42,127,0,-85
-48,69,0,-21
-57,35,0,22
-71,-10,0,81
-80,-107,0,187
-86,-138,0,224
-78,-227,0,305
-75,-277,0,352
-64,-288,0,352
-47,-296,0,343
-21,-347,0,368
-9,-375,0,384
21,-399,0,378
28,-432,0,404
71,-455,0,384
83,-483,0,400
102,-480,0,378
121,-525,0,404
146,-478,0,332
159,-488,0,329
168,-464,0,296
171,-446,0,275
172,-405,0,233
178,-378,0,200
195,-318,0,123
187,-294,0,107
177,-274,0,97
160,-224,0,64
161,-223,0,62
163,-180,-1,18
149,-165,-1,17
144,-131,-1,-12
136,-118,-1,-17
141,-116,-1,-24
131,-90,-1,-40
124,-122,-1,-1
117,-95,-1,-21
114,-91,-1,-22
115,-84,-1,-30
109,-81,-1,-27
90,-88,-1,-1
70,-26,-1,-43
59,-43,-1,-15
47,-40,-2,-5
72,-18,-2,-52
75,-3,-2,-70
67,5,-2,-70
83,3,-2,-84
81,-51,-2,-28
53,1,-3,-51
66,-13,-4,-49
64,29,-8,-85
59,0,-8,-51
72,-47,-9,-16
61,-27,-10,-24
62,-44,-11,-7
59,-34,-13,-12
62,-13,-14,-35
68,-34,-15,-19
77,-37,-22,-18
97,-55,-23,-19
93,-38,-25,-30
98,-18,-31,-49
97,-51,-37,-9
108,-40,-43,-25
119,-37,-48,-34
106,-41,-50,-15
110,-24,-52,-34
92,-23,-55,-14
92,-39,-59,6
95,-34,-68,7
87,-14,-75,2
109,-33,-90,14
107,25,-98,-34
178,11,-109,-80
324,-32,-143,-149
275,-9,-129,-137
221,0,-109,-112
181,-43,-94,-44
125,-39,-76,-10
100,-15,-67,-18
73,11,-63,-21
46,98,-62,-82
28,66,-63,-31
16,41,-59,2
-2,64,-61,-1
-14,67,-57,4
-34,56,-63,41
-38,82,-70,26
-55,71,-66,50
-65,33,-67,99
-71,37,-67,101
-79,1,-62,140
-84,-49,-61,194
-93,-69,-66,228
-99,-103,-62,264
-99,-96,-57,252
-106,-129,-53,288
-112,-141,-46,299
-114,-127,-52,293
-122,-118,-53,293
-130,-123,-55,308
-130,-95,-59,284
-136,-55,-57,248
-140,-35,-66,241
-144,3,-74,215
-153,79,-71,145
-156,99,-72,129
-155,131,-67,91
-155,182,-58,31
-156,225,-44,-25
-155,281,-26,-100
-162,341,-13,-166
-160,379,-11,-208
-163,370,-4,-203
-167,387,9,-229
-167,397,12,-242
-168,417,15,-264
-167,422,19,-274
-161,422,8,-269
-155,378,13,-236
-156,352,1,-197
-157,347,-19,-171
-149,295,-30,-116
-147,258,-43,-68
-142,209,-52,-15
-142,211,-53,-16
-142,171,-68,39
-141,103,-76,114
-140,45,-78,173
-138,13,-78,203
-129,-16,-69,214
-127,-37,-65,229
-120,-65,-57,242
-119,-83,-47,249
-116,-108,-49,273
-109,-116,-52,277
-106,-187,-57,350
-97,-171,-59,327
-93,-154,-70,317
-84,-126,-81,291
-77,-98,-77,252
-71,-60,-88,219
-64,-33,-83,180
-55,29,-84,110
-44,64,-78,58
-35,80,-77,32
-29,92,-66,3
-14,79,-64,-1
-4,75,-52,-19
10,74,-55,-29
18,80,-50,-48
34,74,-47,-61
48,39,-54,-33
65,42,-46,-61
92,31,-40,-83
134,-4,-54,-76
183,-15,-73,-95
250,-43,-86,-121
294,-36,-104,-154
163,1,-98,-66
103,-4,-95,-4
91,-7,-90,6
87,-6,-89,8
104,-41,-82,19
85,-7,-74,-4
89,-56,-67,34
71,-33,-61,23
79,-14,-54,-11
76,-31,-49,4
80,-4,-47,-29
86,-12,-46,-28
83,-8,-43,-32
72,-35,-36,-1
75,-45,-33,3
69,-41,-31,3
68,-48,-29,9
70,-19,-27,-24
78,-47,-22,-9
63,-25,-20,-18
58,-38,-18,-2
56,-2,-16,-38
51,9,-8,-52
34,14,-7,-41
29,2,-5,-26
32,5,-5,-32
39,-6,-4,-29
54,24,-4,-74
62,-2,-3,-57
71,-31,-3,-37
71,-31,-3,-37
72,-22,-3,-47
84,-35,-3,-46
77,-60,-3,-14
85,-80,-3,-2
78,-54,-2,-22
91,-86,-2,-3
96,-84,-2,-10
96,-62,-2,-32
91,-55,-2,-34
122,-73,-2,-47
115,-81,-2,-32
114,-79,-2,-33
119,-100,-2,-17
127,-149,-2,24
128,-152,-2,26
133,-191,-2,60
151,-233,-2,84
158,-293,-2,137
172,-330,-1,159
182,-344,-1,163
168,-357,-1,190
168,-383,-1,216
171,-397,-1,227
165,-419,-1,255
160,-442,-1,283
150,-461,-1,312
156,-486,-1,331
135,-494,-1,360
120,-506,-1,387
88,-474,-1,387
66,-441,-1,376
44,-407,-1,364
12,-409,-1,398
-15,-331,-1,347
-46,-303,-1,350
-59,-285,-1,345
-71,-258,-1,330
-79,-246,0,325
-86,-223,0,309
-86,-177,0,263
-76,-124,0,200
-55,-88,0,143
-50,-13,0,63
-39,62,0,-23
-33,111,0,-78
-26,178,0,-152
-15,202,0,-187
-6,229,0,-223
0,235,0,-235
4,216,0,-220
6,207,0,-213
6,196,0,-202
7,183,0,-190
1,153,0,-154
-5,139,0,-134
2,149,0,-151
9,174,0,-183
17,200,0,-217
11,224,0,-235
3,249,0,-252
-5,268,0,-263
-9,264,0,-255
-15,220,0,-205
-30,199,0,-169
-38,197,0,-159
-44,146,0,-102
-50,109,0,-59
-59,65,0,-6
-76,-13,0,89
-88,-52,0,140
-91,-125,0,216
-82,-182,0,264
-74,-215,0,289
-73,-212,0,285
-51,-243,0,294
-35,-278,0,313
-19,-299,0,318
2,-315,0,313
26,-371,0,345
55,-399,0,344
71,-419,0,348
85,-471,0,386
112,-477,0,365
127,-466,0,339
139,-475,0,336
152,-446,0,294
151,-427,0,276
151,-410,0,259
165,-360,0,195
175,-308,0,133
170,-308,0,138
152,-281,0,129
147,-253,0,106
147,-225,0,78
141,-192,-1,52
134,-173,-1,40
115,-124,-1,10
127,-138,-1,12
123,-103,-1,-19
121,-125,-1,5
109,-103,-1,-5
115,-113,-1,-1
100,-81,-1,-18
108,-75,-1,-32
94,-88,-1,-5
76,-72,-1,-3
58,-26,-1,-31
41,-12,-1,-28
48,-3,-2,-43
63,-1,-2,-60
62,-6,-2,-54
65,-7,-2,-56
68,-48,-3,-17
65,-25,-3,-37
62,-4,-4,-54
49,17,-5,-61
51,-6,-9,-36
45,-28,-9,-8
52,10,-10,-52
54,-1,-11,-42
47,12,-12,-47
54,-15,-14,-25
52,-9,-15,-28
56,0,-16,-40
71,17,-23,-65
96,-12,-24,-60
93,-23,-26,-44
93,-5,-32,-56
78,23,-39,-62
95,20,-45,-70
98,14,-50,-62
89,-27,-52,-10
85,5,-54,-36
69,1,-58,-12
74,-20,-63,9
77,3,-73,-7
81,-13,-80,12
81,22,-96,-7
92,64,-103,-53
163,15,-117,-61
332,-29,-153,-150
269,-20,-131,-118
212,-34,-113,-65
169,-45,-98,-26
122,-37,-83,-2
84,4,-59,-29
55,45,-55,-45
39,45,-58,-26
12,98,-49,-61
2,61,-51,-12
-13,73,-55,-5
-25,51,-60,34
-41,72,-56,25
-55,89,-69,35
-63,78,-68,53
-78,61,-71,88
-85,69,-70,86
-94,19,-65,140
-98,-26,-57,181
-107,-68,-63,238
-111,-75,-55,241
-117,-85,-56,258
-122,-100,-49,271
-130,-120,-44,294
-130,-124,-48,302
-143,-115,-47,305
-146,-108,-44,298
-147,-81,-56,284
-155,-64,-62,281
-153,-32,-69,254
-158,15,-65,208
-157,46,-64,175
-160,116,-69,113
-158,128,-60,90
-163,176,-46,33
-167,227,-38,-22
-165,289,-21,-103
-171,306,-7,-128
-171,350,-1,-178
-177,382,11,-216
-177,385,25,-233
-175,406,28,-259
-174,410,29,-265
-175,432,28,-285
-173,440,21,-288
-176,406,20,-250
-171,385,8,-222
-167,353,-10,-176
-161,329,-23,-145
-156,282,-33,-93
-150,263,-38,-75
-152,203,-51,0
-152,169,-65,48
-151,123,-74,102
-146,90,-79,135
-145,22,-69,192
-142,-10,-63,215
-140,-87,-63,290
-134,-99,-49,282
-127,-123,-44,294
-123,-135,-48,306
-116,-140,-43,299
-111,-152,-54,317
-103,-156,-57,316
-99,-145,-63,307
-93,-113,-76,282
-84,-134,-84,302
-71,-59,-89,219
-62,-19,-82,163
-51,11,-81,121
-50,52,-78,76
-46,38,-70,78
-32,45,-66,53
-19,72,-56,3
-8,83,-54,-21
6,43,-52,3
11,85,-48,-48
28,74,-45,-57
51,53,-48,-56
66,40,-35,-71
90,1,-42,-49
121,0,-49,-72
168,-15,-71,-82
230,-42,-90,-98
308,-35,-113,-160
151,-17,-103,-31
91,16,-104,-3
89,23,-100,-12
80,37,-99,-18
99,-29,-92,22
75,-11,-82,18
77,-42,-74,39
62,-63,-67,68
52,-42,-59,49
65,-36,-54,25
65,-64,-52,51
75,7,-51,-31
73,5,-47,-31
67,-9,-38,-20
61,-8,-34,-19
68,-51,-32,15
75,-15,-30,-30
68,-42,-28,2
61,-23,-23,-15
53,-42,-21,10
73,-51,-19,-3
54,-32,-16,-6
56,-3,-8,-45
33,36,-7,-62
22,15,-5,-32
38,-1,-5,-32
37,-25,-4,-8
54,-12,-4,-38
47,-17,-3,-27
56,-18,-3,-35
64,-24,-3,-37
63,-25,-3,-35
64,1,-3,-62
73,-51,-3,-19
77,-92,-3,18
86,-88,-2,4
82,-87,-2,7
102,-86,-2,-14
98,-122,-2,26
89,-49,-2,-38
106,-71,-2,-33
98,-93,-2,-3
109,-78,-2,-29
116,-100,-2,-14
115,-136,-2,23
116,-157,-2,43
120,-163,-2,45
133,-190,-2,59
151,-264,-2,115
158,-317,-1,160
168,-335,-1,168
163,-351,-1,189
155,-354,-1,200
154,-397,-1,244
151,-399,-1,249
138,-413,-1,276
139,-419,-1,281
143,-449,-1,307
113,-449,-1,337
111,-446,-1,336
81,-446,-1,366
58,-401,-1,344
30,-357,-1,328
0,-312,-1,313
-25,-289,-1,315
-49,-226,-1,276
-71,-193,-1,265
-87,-173,-1,261
-88,-165,0,253
-99,-151,0,250
-92,-133,0,225
-88,-83,0,171
-71,-33,0,104
-52,37,0,15
-44,82,0,-38
-34,151,0,-117
-30,189,0,-159
-22,240,0,-218
-6,241,0,-235
-1,259,0,-258
5,249,0,-254
7,227,0,-234
10,215,0,-225
9,196,0,-205
2,180,0,-182
-3,155,0,-152
4,174,0,-178
13,196,0,-209
16,224,0,-240
10,252,0,-262
2,274,0,-276
-5,284,0,-279
-8,256,0,-248
-22,234,0,-212
-34,239,0,-205
-41,217,0,-176
-51,171,0,-120
-57,138,0,-81
-70,87,0,-17
-86,16,0,70
-97,-37,0,134
-94,-104,0,198
-86,-131,0,217
-90,-145,0,235
-77,-154,0,231
-58,-184,0,242
-44,-204,0,248
-35,-215,0,250
-3,-284,0,287
19,-323,0,304
44,-364,0,320
59,-407,0,348
75,-451,0,376
105,-443,0,338
122,-463,0,341
129,-446,0,317
140,-451,0,311
137,-408,0,271
146,-381,0,235
155,-331,0,176
164,-354,0,190
153,-341,0,188
139,-288,0,149
144,-271,0,127
139,-244,0,105
140,-219,-1,80
112,-164,-1,53
122,-150,-1,29
129,-131,-1,3
120,-132,-1,13
114,-120,-1,7
107,-103,-1,-3
110,-106,-1,-3
112,-134,-1,23
113,-91,-1,-21
93,-113,-1,21
79,-40,-1,-38
57,-34,-1,-22
80,-28,-1,-51
67,-36,-2,-29
68,-44,-2,-22
81,-64,-2,-15
87,-45,-2,-40
83,-75,-3,-5
81,-40,-3,-38
79,10,-4,-85
53,-6,-5,-42
65,-30,-9,-26
71,-8,-9,-54
68,-11,-10,-47
77,-17,-11,-49
82,-52,-12,-18
75,-11,-14,-50
74,-48,-16,-10
78,-20,-17,-41
105,-24,-24,-57
113,-55,-25,-33
97,-40,-27,-30
95,-20,-33,-42
94,7,-40,-61
106,-35,-46,-25
96,-55,-51,10
88,-17,-54,-17
85,-39,-57,11
76,-36,-62,22
71,-32,-67,28
82,16,-78,-20
82,15,-87,-10
78,40,-102,-16
110,-6,-110,6
182,-38,-127,-17
354,-92,-159,-103
290,-41,-136,-113
244,-58,-120,-66
181,-65,-99,-17
142,11,-82,-71
102,31,-53,-80
79,32,-45,-66
50,46,-52,-44
33,52,-45,-40
21,69,-46,-44
9,81,-51,-39
-11,95,-51,-33
-13,91,-59,-19
-35,75,-60,20
-46,95,-68,19
-58,66,-66,58
-72,17,-59,114
-77,18,-60,119
-83,-2,-59,144
-92,-29,-58,179
-98,-35,-52,185
-104,-51,-53,208
-107,-97,-45,249
-109,-111,-40,260
-109,-121,-38,268
-113,-145,-43,301
-122,-109,-42,273
-128,-95,-49,272
-129,-118,-52,299
-133,-80,-58,271
-131,-23,-59,213
-134,36,-60,158
-142,80,-59,121
-146,129,-54,71
-146,169,-31,8
-152,218,-23,-43
-155,240,-16,-69
-163,298,-2,-133
-170,343,7,-180
-168,347,36,-215
-169,377,37,-245
-168,388,45,-265
-168,388,47,-267
-168,382,46,-260
-167,384,42,-259
-166,377,30,-241
-161,358,22,-219
-155,339,1,-185
-153,336,-18,-165
-153,301,-26,-122
-150,263,-33,-80
-152,213,-46,-15
-148,168,-50,30
-139,118,-70,91
-140,55,-74,159
-135,3,-62,194
-131,-21,-59,211
-130,-55,-57,242
-129,-99,-40,268
-123,-116,-34,273
-117,-132,-38,287
-117,-134,-38,289
-103,-118,-40,261
-96,-122,-50,268
-88,-97,-59,244
-81,-68,-60,209
-72,-27,-81,180
-60,-44,-83,187
-49,-32,-82,163
-39,-13,-78,130
-32,48,-82,66
-29,79,-70,20
-10,32,-63,41
-2,47,-49,4
8,54,-43,-19
18,53,-36,-35
33,43,-42,-34
45,59,-43,-61
69,30,-37,-62
88,24,-24,-88
118,-10,-36,-72
148,-15,-40,-93
193,-64,-64,-65
260,-57,-97,-106
334,-94,-112,-128
175,-19,-105,-51
108,-16,-109,17
86,-10,-102,26
96,8,-102,-2
109,4,-96,-17
91,-29,-86,24
84,-20,-78,14
83,-38,-71,26
80,-53,-63,36
82,-70,-57,45
75,-50,-55,30
92,-61,-52,21
91,-45,-48,2
82,-20,-39,-23
76,-54,-35,13
73,-69,-33,29
91,-90,-30,29
89,-51,-28,-10
66,-42,-23,-1
71,-61,-21,11
82,-86,-19,23
76,-94,-16,34
56,-32,-8,-16
45,-17,-7,-21
43,-15,-5,-23
54,-2,-5,-47
50,-18,-4,-28
60,-64,-4,8
66,-30,-3,-33
64,-56,-3,-5
67,-39,-3,-25
79,-59,-3,-17
77,-59,-3,-15
85,-48,-3,-34
83,-85,-3,5
75,-105,-2,32
103,-112,-2,11
108,-120,-2,14
126,-118,-2,-6
112,-106,-2,-4
111,-82,-2,-27
98,-108,-2,12
113,-126,-2,15
120,-130,-2,12
122,-126,-2,6
117,-146,-2,31
119,-196,-2,79
133,-222,-2,91
140,-251,-2,113
150,-333,-1,184
167,-373,-1,207
163,-392,-1,230
148,-377,-1,230
151,-386,-1,236
143,-396,-1,254
139,-426,-1,288
135,-436,-1,302
139,-419,-1,281
107,-447,-1,341
101,-432,-1,332
73,-402,-1,330
56,-365,-1,310
32,-317,-1,286
-13,-248,-1,262
-34,-225,-1,260
-61,-188,-1,250
-71,-136,-1,208
-93,-126,-1,220
-99,-102,0,201
-106,-82,0,188
-108,-73,0,181
-95,-52,0,147
-82,-1,0,83
-65,53,0,12
-48,109,0,-61
-38,167,0,-129
-29,208,0,-179
-23,249,0,-226
-16,273,0,-257
-1,280,0,-279
6,280,0,-286
10,252,0,-262
11,225,0,-236
12,215,0,-227
5,199,0,-204
-1,179,0,-178
7,196,0,-203
16,224,0,-240
13,254,0,-267
12,282,0,-294
0,308,0,-308
-5,305,0,-300
-12,286,0,-274
-26,287,0,-261
-35,276,0,-241
-47,252,0,-205
-55,217,0,-162
-64,163,0,-99
-81,119,0,-38
-97,55,0,42
-99,2,0,97
-102,-36,0,138
-95,-59,0,154
-94,-64,0,158
-83,-96,0,179
-73,-111,0,184
-65,-117,0,182
-45,-170,0,215
-14,-231,0,245
2,-264,0,262
32,-320,0,288
50,-381,0,331
77,-396,0,319
96,-418,0,322
113,-421,0,308
113,-428,0,315
123,-396,0,273
126,-378,0,252
141,-357,0,216
150,-348,0,198
154,-350,0,196
142,-298,0,156
142,-307,0,165
135,-244,0,109
132,-223,0,91
119,-199,-1,81
117,-150,-1,34
117,-153,-1,37
120,-85,-1,-34
112,-105,-1,-6
92,-63,-1,-28
110,-123,-1,14
112,-118,-1,7
97,-89,-1,-7
93,-91,-1,-1
88,-71,-1,-16
74,-45,-1,-28
58,-50,-1,-7
67,-40,-1,-26
61,-81,-2,22
66,-57,-2,-7
70,-55,-2,-13
74,-72,-2,0
81,-24,-3,-54
83,-44,-3,-36
67,-16,-4,-47
48,-21,-5,-22
63,-55,-9,1
55,-7,-9,-39
74,15,-10,-79
75,-15,-11,-49
78,-19,-12,-47
77,-40,-14,-23
77,-38,-16,-23
89,-55,-17,-17
92,-49,-24,-19
116,-83,-26,-7
95,-16,-28,-51
86,12,-35,-63
91,-68,-42,19
94,-86,-49,41
91,-49,-57,15
77,-27,-62,12
77,-40,-65,28
64,-26,-72,34
61,3,-78,14
89,-15,-91,17
56,-9,-101,54
82,-17,-115,50
109,-20,-125,36
184,-31,-141,-12
359,-82,-174,-103
297,-56,-150,-91
241,-16,-134,-91
183,0,-107,-76
136,-20,-80,-36
100,-5,-59,-36
70,17,-44,-43
47,45,-35,-57
32,31,-44,-19
18,33,-42,-9
-2,31,-44,15
-12,80,-46,-22
-20,75,-57,2
-37,59,-61,39
-52,71,-70,51
-62,69,-68,61
-73,51,-65,87
-76,7,-68,137
-82,18,-59,123
-88,-26,-51,165
-92,-51,-58,201
-92,-85,-51,228
-95,-110,-48,253
-100,-143,-41,284
-104,-164,-35,303
-110,-131,-38,279
-118,-130,-43,291
-125,-108,-45,278
-124,-113,-55,292
-128,-48,-59,235
-137,0,-60,197
-142,58,-61,145
-148,93,-60,115
-152,162,-48,38
-152,180,-30,2
-162,226,-24,-40
-165,279,-15,-99
-170,311,-5,-136
-170,328,24,-182
-166,347,37,-218
-176,342,45,-211
-173,355,60,-242
-173,357,62,-246
-174,365,65,-256
-172,382,58,-268
-173,383,36,-246
-175,385,24,-234
-174,358,7,-191
-174,308,-8,-126
-174,273,-20,-79
-168,217,-30,-19
-164,188,-43,19
-152,135,-54,71
-150,106,-64,108
-149,72,-73,150
-141,29,-58,170
-139,-23,-58,220
-136,-55,-46,237
-129,-120,-39,288
-118,-132,-32,282
-119,-130,-28,277
-118,-142,-40,300
-111,-105,-40,256
-105,-96,-45,246
-95,-106,-50,251
-83,-61,-67,211
-77,11,-75,141
-61,29,-89,121
-57,26,-84,115
-46,35,-78,89
-33,48,-79,64
-28,92,-74,10
-19,74,-67,12
-4,49,-52,7
0,54,-38,-16
10,92,-36,-66
30,59,-41,-48
46,79,-45,-80
61,67,-28,-100
91,29,-26,-94
118,48,-39,-127
149,22,-49,-122
184,-8,-63,-113
246,-4,-96,-146
319,-32,-125,-162
168,38,-117,-89
106,41,-121,-26
84,39,-114,-9
91,-16,-119,44
95,19,-111,-3
83,35,-99,-19
70,41,-91,-20
74,4,-83,5
73,4,-73,-4
75,-24,-67,16
76,11,-64,-23
71,30,-61,-40
102,18,-55,-65
73,62,-45,-90
76,27,-41,-62
69,-13,-37,-19
86,-8,-33,-45
98,-12,-30,-56
67,-2,-25,-40
68,3,-23,-48
84,-14,-20,-50
76,-49,-17,-10
66,-20,-9,-37
42,-3,-8,-31
36,14,-6,-44
46,22,-6,-62
57,21,-5,-73
56,-14,-4,-38
64,-12,-3,-49
71,3,-3,-71
69,-19,-3,-47
92,-15,-3,-74
82,-26,-3,-53
79,-6,-3,-70
90,-34,-3,-53
84,-61,-2,-21
96,-112,-2,18
103,-64,-2,-37
116,-90,-2,-24
116,-80,-2,-34
121,-41,-2,-78
98,-67,-2,-29
103,-96,-2,-5
112,-73,-2,-37
111,-101,-2,-8
111,-140,-2,31
106,-132,-2,28
124,-184,-2,62
136,-219,-2,85
137,-252,-1,116
157,-330,-1,174
157,-349,-1,193
146,-369,-1,224
138,-375,-1,238
131,-390,-1,260
126,-385,-1,260
127,-409,-1,283
125,-417,-1,293
102,-379,-1,278
86,-373,-1,288
60,-360,-1,301
42,-314,-1,273
23,-274,-1,252
-20,-220,-1,241
-49,-158,-1,208
-76,-118,-1,195
-88,-80,-1,169
-97,-45,-1,143
-109,-31,0,140
-123,-16,0,139
-115,-6,0,121
-111,13,0,98
-92,23,0,69
-81,105,0,-24
-62,148,0,-86
-44,178,0,-134
-32,239,0,-207
-28,285,0,-257
-19,300,0,-281
-10,307,0,-297
1,311,0,-312
5,291,0,-296
9,262,0,-271
10,237,0,-247
5,217,0,-222
0,203,0,-203
13,224,0,-237
17,254,0,-271
18,283,0,-301
7,320,0,-327
5,330,0,-335
-2,316,0,-314
-18,322,0,-304
-26,309,0,-283
-38,308,0,-270
-47,271,0,-224
-61,239,0,-178
-73,206,0,-133
-89,128,0,-39
-97,75,0,22
-103,40,0,63
-106,-3,0,109
-104,12,0,92
-99,-13,0,112
-97,-38,0,135
-86,-29,0,115
-79,-61,0,140
-50,-139,0,189
-26,-191,0,217
-10,-249,0,259
25,-322,0,297
46,-364,0,318
66,-392,0,326
85,-419,0,334
94,-442,0,348
105,-431,0,326
109,-408,0,299
127,-418,0,291
123,-397,0,274
127,-379,0,252
138,-337,0,199
133,-357,0,224
121,-293,0,172
124,-275,0,151
119,-228,0,109
116,-194,-1,79
104,-167,-1,64
110,-83,-1,-26
111,-116,-1,6
87,-89,-1,3
85,-125,-1,41
93,-108,-1,16
103,-121,-1,19
85,-84,-1,0
98,-107,-1,10
86,-71,-1,-14
72,-84,-1,13
57,-61,-1,5
82,-87,-1,6
40,-47,-2,9
65,-86,-2,23
68,-48,-2,-18
72,-30,-2,-40
85,-16,-3,-66
86,-25,-3,-58
56,-17,-4,-35
43,-41,-5,3
62,-10,-9,-43
59,50,-9,-100
83,-27,-11,-45
88,-61,-12,-15
86,-45,-15,-26
90,-50,-17,-23
81,-48,-19,-14
102,-53,-21,-28
120,-41,-28,-51
123,-8,-30,-85
102,-24,-32,-46
95,-44,-39,-12
93,-80,-46,33
76,-43,-53,20
87,-4,-63,-20
76,-42,-68,34
86,-43,-71,28
64,-26,-78,40
78,-11,-86,19
78,-37,-99,58
69,6,-108,33
94,-20,-123,49
129,-12,-136,19
211,-15,-148,-48
382,-46,-179,-157
316,-40,-155,-121
254,-77,-135,-42
195,-59,-109,-27
152,-42,-76,-34
124,-14,-52,-58
92,-2,-35,-55
60,27,-20,-67
43,22,-36,-29
23,40,-37,-26
14,39,-31,-22
-3,44,-51,10
-13,32,-48,29
-20,59,-56,17
-29,102,-59,-14
-36,62,-66,40
-51,51,-66,66
-55,25,-58,88
-61,-20,-55,136
-65,-16,-47,128
-68,-61,-49,178
-78,-111,-47,236
-89,-159,-43,291
-95,-165,-35,295
-102,-163,-18,283
-109,-152,-29,290
-110,-142,-30,282
-111,-104,-38,253
-118,-75,-43,236
-126,-2,-52,180
-129,33,-49,145
-133,83,-55,105
-135,113,-53,75
-145,150,-32,27
-146,217,-26,-45
-147,237,-22,-68
-152,282,-8,-122
-151,296,10,-155
-151,311,41,-201
-157,355,56,-254
-160,360,61,-261
-154,357,68,-271
-161,367,78,-284
-161,368,92,-299
-163,380,79,-296
-163,375,53,-265
-167,359,42,-234
-165,339,17,-191
-166,296,5,-135
-163,261,-8,-90
-159,202,-19,-24
-156,168,-40,28
-155,140,-55,70
-154,67,-55,142
-143,76,-56,123
-136,20,-56,172
-137,0,-47,184
-129,-48,-35,212
-124,-79,-30,233
-118,-133,-24,275
-121,-118,-19,258
-109,-124,-33,266
-105,-122,-34,261
-91,-135,-32,258
-88,-102,-40,230
-80,-59,-61,200
-68,-14,-69,151
-56,3,-83,136
-45,24,-78,99
-36,20,-79,95
-27,90,-75,12
-19,124,-72,-33
-13,114,-58,-43
-2,81,-44,-35
4,13,-22,5
16,43,-31,-28
40,68,-40,-68
58,37,-31,-64
74,45,-18,-101
101,28,-25,-104
126,18,-24,-120
161,27,-40,-148
204,-11,-60,-133
261,-33,-97,-131
334,-56,-127,-151
176,-12,-123,-41
120,34,-125,-29
93,15,-120,12
96,42,-125,-13
121,4,-117,-8
87,26,-106,-7
84,11,-96,1
77,33,-88,-22
79,22,-78,-23
93,-11,-72,-10
96,-20,-68,-8
93,-19,-64,-10
106,15,-58,-63
99,9,-48,-60
86,60,-44,-102
84,23,-40,-67
89,3,-36,-56
108,-7,-33,-68
91,-26,-28,-37
86,-15,-25,-46
103,-32,-21,-50
95,-46,-18,-31
87,-41,-10,-36
61,4,-9,-56
49,-10,-7,-32
61,-10,-7,-44
60,-13,-6,-41
66,-24,-5,-37
72,-55,-3,-14
90,-28,-3,-59
79,-72,-3,-4
74,-43,-3,-28
85,-34,-3,-48
83,-56,-3,-24
95,-40,-3,-52
86,-48,-2,-36
90,-106,-2,18
108,-128,-2,22
114,-91,-2,-21
103,-63,-2,-38
120,-97,-2,-21
96,-41,-2,-53
108,-81,-2,-25
103,-115,-2,14
107,-108,-2,3
106,-123,-2,19
98,-167,-2,71
108,-180,-2,74
116,-236,-2,122
127,-279,-1,153
137,-313,-1,177
151,-368,-1,218
138,-385,-1,248
138,-408,-1,271
126,-394,-1,269
124,-378,-1,255
123,-400,-1,278
127,-402,-1,276
92,-393,-1,302
79,-336,-1,258
58,-316,-1,259
36,-290,-1,255
22,-231,-1,210
-21,-173,-1,195
-52,-110,-1,163
-81,-77,-1,159
-92,-34,-1,127
-102,-21,-1,124
-108,0,0,108
-123,31,0,92
-125,46,0,79
-114,56,0,58
-99,83,0,16
-82,88,0,-6
-67,178,0,-111
-52,216,0,-164
-31,248,0,-217
-24,303,0,-279
-19,339,0,-320
-10,321,0,-311
3,333,0,-336
12,325,0,-337
16,287,0,-303
16,255,0,-271
12,236,0,-248
5,220,0,-225
8,257,0,-265
16,288,0,-304
13,315,0,-328
8,333,0,-341
2,348,0,-350
-8,337,0,-329
-20,344,0,-324
-28,344,0,-316
-41,300,0,-259
-57,291,0,-234
-69,260,0,-191
-83,195,0,-112
-91,151,0,-60
-100,107,0,-7
-107,68,0,39
-114,70,0,44
-104,48,0,56
-110,32,0,78
-110,34,0,76
-96,1,0,95
-78,-43,0,121
-57,-105,0,162
-40,-155,0,195
-16,-228,0,244
19,-312,0,293
40,-339,0,299
51,-385,0,334
75,-405,0,330
83,-441,0,358
91,-412,0,321
113,-423,0,310
105,-412,0,307
108,-398,0,290
120,-388,0,268
125,-359,0,234
119,-344,0,225
102,-290,0,188
111,-264,0,153
103,-218,0,115
97,-156,-1,60
99,-130,-1,32
91,-139,-1,49
81,-136,-1,56
64,-119,-1,56
82,-134,-1,53
89,-130,-1,42
88,-91,-1,4
85,-154,-1,70
70,-83,-1,14
58,-122,-1,65
47,-83,-1,37
43,-90,-1,48
54,-105,-1,52
33,-124,-2,93
40,-70,-2,32
54,-44,-2,-8
56,-65,-2,11
81,-55,-3,-23
65,-54,-3,-8
36,-26,-5,-5
39,-42,-6,9
54,6,-10,-50
69,-36,-10,-23
78,-85,-12,19
95,-66,-14,-15
83,-72,-17,6
80,-17,-19,-44
84,-46,-22,-16
93,-66,-24,-3
104,-42,-31,-31
93,-31,-33,-29
77,-74,-35,32
90,-76,-42,28
63,-22,-50,9
77,-11,-58,-8
70,-31,-68,29
71,-40,-74,43
75,-30,-78,33
66,-41,-85,60
66,-15,-93,42
62,-4,-108,50
74,20,-116,22
88,-12,-133,57
123,7,-147,17
184,-11,-150,-23
383,-74,-187,-122
306,-81,-163,-62
246,-57,-134,-55
188,-10,-107,-71
146,-28,-72,-46
104,11,-50,-65
67,9,-24,-52
50,-27,-13,-10
32,2,-19,-15
9,8,-30,13
3,63,-26,-40
-10,65,-32,-23
-24,76,-41,-11
-30,91,-46,-15
-44,86,-51,9
-47,24,-60,83
-52,-24,-65,141
-64,-38,-50,152
-71,-72,-51,194
-73,-90,-44,207
-80,-98,-40,218
-90,-133,-44,267
-99,-174,-39,312
-103,-181,-24,308
-108,-173,-14,295
-111,-156,-23,290
-120,-153,-27,300
-130,-122,-26,278
-132,-83,-30,245
-146,-23,-43,212
-150,35,-40,155
-155,61,-43,137
-157,114,-37,80
-158,137,-29,50
-159,188,-19,-10
-166,245,-9,-70
-170,263,1,-94
-172,282,22,-132
-169,298,55,-184
-171,324,59,-212
-168,331,75,-238
-174,373,91,-290
-175,359,111,-295
-179,364,109,-294
-175,371,98,-294
-177,365,64,-252
-175,343,55,-223
-180,297,34,-151
-180,254,16,-90
-177,210,2,-35
-175,183,-11,3
-172,189,-31,14
-166,142,-47,71
-161,77,-46,130
-158,13,-40,185
-160,-6,-44,210
-151,-17,-31,199
-143,-42,-27,212
-135,-63,-24,222
-130,-109,-11,250
-126,-120,-11,257
-117,-133,-20,270
-108,-109,-29,246
-99,-114,-26,239
-95,-96,-36,227
-85,-60,-48,193
-76,-46,-70,192
-70,11,-68,127
-61,13,-75,123
-50,73,-74,51
-39,54,-67,52
-24,83,-67,8
-15,92,-50,-27
-17,91,-32,-42
-12,46,-27,-7
-3,55,-24,-28
16,31,-28,-19
34,0,-16,-18
62,-2,-16,-44
89,-1,-21,-67
118,-8,-18,-92
150,-37,-33,-80
192,-62,-56,-74
251,-69,-88,-94
330,-120,-128,-82
163,-54,-122,13
107,-21,-124,38
84,-4,-121,41
83,-10,-126,53
108,-42,-121,55
81,-30,-109,58
66,-44,-99,77
61,-45,-91,75
63,-39,-81,57
83,-30,-75,22
77,-44,-71,38
85,-34,-67,16
94,-80,-61,47
89,-56,-51,18
81,-29,-47,-5
64,29,-43,-50
75,-24,-38,-13
96,-24,-35,-37
89,-29,-30,-30
72,-56,-27,11
81,-49,-23,-9
97,-77,-19,-1
83,-46,-11,-26
54,-55,-9,10
41,-49,-7,15
48,-65,-7,24
53,-68,-6,21
57,-43,-5,-9
55,-58,-3,6
71,-96,-3,28
73,-63,-3,-7
73,-94,-3,24
71,-77,-3,9
75,-82,-3,10
81,-85,-3,7
81,-65,-2,-14
80,-76,-2,-2
86,-129,-2,45
102,-157,-2,57
91,-148,-2,59
110,-92,-2,-16
86,-86,-2,2
87,-66,-2,-19
89,-101,-2,14
95,-142,-2,49
93,-134,-2,43
90,-170,-2,82
100,-203,-2,105
101,-215,-2,116
105,-266,-1,162
122,-309,-1,188
122,-341,-1,220
127,-388,-1,262
128,-417,-1,290
112,-407,-1,296
109,-418,-1,310
109,-400,-1,292
112,-400,-1,289
83,-397,-1,315
68,-371,-1,304
40,-292,-1,253
26,-270,-1,245
11,-223,-1,213
-20,-153,-1,174
-54,-77,-1,132
-92,-23,-1,116
-96,1,-1,96
-115,34,-1,82
-117,62,0,55
-124,78,0,46
-128,83,0,45
-122,96,0,26
-108,113,0,-5
-90,137,0,-47
-73,163,0,-90
-58,234,0,-176
-40,255,0,-215
-23,296,0,-273
-17,343,0,-326
-13,375,0,-362
0,342,0,-342
7,353,0,-360
15,334,0,-349
17,284,0,-301
12,254,0,-266
6,237,0,-243
8,292,0,-300
17,314,0,-331
13,347,0,-360
9,363,0,-372
1,361,0,-362
-9,367,0,-358
-20,379,0,-359
-28,354,0,-326
-44,341,0,-297
-59,321,0,-262
-75,265,0,-190
-82,203,0,-121
-90,158,0,-68
-102,136,0,-34
-112,130,0,-18
-109,107,0,2
-113,97,0,16
-125,110,0,15
-119,79,0,40
-107,56,0,51
-84,-8,0,92
-71,-50,0,121
-48,-120,0,168
-22,-208,0,230
12,-276,0,264
28,-324,0,296
41,-371,0,330
62,-421,0,359
71,-407,0,336
85,-418,0,333
96,-434,0,338
92,-388,0,296
104,-383,0,279
112,-382,0,270
123,-364,0,241
103,-298,0,195
92,-261,0,169
96,-225,0,129
92,-182,0,90
86,-138,-1,53
88,-130,-1,43
80,-118,-1,39
63,-94,-1,32
76,-130,-1,55
85,-112,-1,28
94,-130,-1,37
75,-96,-1,22
72,-112,-1,41
67,-62,-1,-4
49,-69,-1,21
47,-84,-1,38
39,-89,-1,51
53,-108,-1,56
28,-41,-2,15
38,-82,-2,46
52,-72,-2,22
65,-66,-2,3
75,-88,-3,16
54,-39,-3,-12
42,-72,-5,35
38,-20,-6,-12
60,-34,-11,-15
76,-86,-11,21
105,-88,-13,-4
94,-41,-15,-38
88,-43,-18,-27
82,-29,-20,-33
102,-61,-25,-16
104,-23,-27,-54
100,-11,-35,-54
102,-33,-37,-32
84,1,-39,-46
85,-18,-46,-21
72,-12,-54,-6
85,23,-62,-46
89,0,-74,-15
92,-11,-82,1
82,-21,-87,26
73,-13,-94,34
65,15,-102,22
83,8,-117,26
80,15,-128,33
96,57,-144,-9
126,23,-155,6
193,5,-163,-35
391,-31,-200,-160
312,-51,-171,-90
250,-62,-147,-41
189,-13,-103,-73
143,-13,-75,-55
106,-3,-54,-49
75,-3,-22,-50
60,-6,-17,-37
28,-8,-13,-7
11,14,-17,-8
3,43,-29,-17
-11,40,-23,-6
-24,82,-40,-18
-32,81,-42,-7
-38,6,-52,84
-44,-13,-55,112
-43,-10,-65,118
-49,-18,-57,124
-62,-12,-48,122
-67,-28,-39,134
-82,-84,-40,206
-86,-129,-41,256
-87,-158,-33,278
-88,-155,-18,261
-100,-123,-12,235
-111,-118,-11,240
-119,-109,-14,242
-124,-106,-25,255
-129,-72,-27,228
-135,-25,-33,193
-144,12,-36,168
-149,44,-34,139
-151,71,-34,114
-156,132,-30,54
-161,149,-6,18
-161,220,-3,-56
-157,222,15,-80
-158,239,36,-117
-164,244,62,-142
-169,299,71,-201
-166,298,88,-220
-172,301,93,-222
-169,269,124,-224
-171,271,127,-227
-175,283,112,-220
-179,279,84,-184
-175,265,62,-152
-169,254,54,-139
-167,209,21,-63
-167,179,7,-19
-168,115,-5,58
-166,75,-23,114
-164,78,-41,127
-159,31,-38,166
-159,4,-37,192
-149,-48,-36,233
-144,-93,-25,262
-143,-59,-24,226
-132,-111,-14,257
-125,-134,-7,266
-118,-127,-12,257
-112,-117,-15,244
-100,-165,-18,283
-93,-127,-22,242
-81,-115,-32,228
-72,-84,-45,201
-64,-66,-65,195
-57,-37,-65,159
-45,-5,-68,118
-36,14,-76,98
-24,12,-65,77
-16,73,-66,9
-13,96,-51,-32
-12,101,-25,-64
-5,52,-31,-16
12,10,-26,4
26,5,-21,-10
37,-4,-7,-26
61,-12,-8,-41
79,-24,-16,-39
113,-28,-26,-59
155,-51,-27,-77
208,-39,-58,-111
262,-64,-91,-107
334,-96,-136,-102
171,-60,-132,21
105,-57,-139,91
100,-31,-132,63
92,4,-137,41
117,-12,-132,27
107,-11,-119,23
83,-22,-110,49
79,-95,-100,116
61,-49,-90,78
73,-87,-82,96
83,-42,-78,37
88,-64,-72,48
105,-56,-66,17
99,-65,-55,21
98,-23,-51,-24
80,-10,-46,-24
82,-14,-41,-27
86,-24,-38,-24
88,-28,-33,-27
80,-18,-29,-33
85,-31,-24,-30
83,-27,-20,-36
74,-51,-11,-12
73,-86,-9,22
49,-46,-7,4
58,-43,-7,-8
56,-73,-6,23
68,-115,-5,52
61,-61,-3,3
67,-87,-3,23
81,-98,-3,20
81,-90,-3,12
72,-105,-3,36
62,-73,-3,14
81,-115,-3,37
78,-64,-2,-12
80,-58,-2,-20
86,-85,-2,1
109,-135,-2,28
93,-143,-2,52
110,-121,-2,13
84,-124,-2,42
92,-46,-2,-44
81,-64,-2,-15
79,-106,-2,29
90,-137,-2,49
76,-146,-2,72
98,-178,-2,82
106,-216,-2,112
97,-242,-1,146
106,-275,-1,170
111,-325,-1,215
104,-348,-1,245
120,-380,-1,261
113,-404,-1,292
102,-389,-1,288
105,-418,-1,314
101,-375,-1,275
71,-379,-1,309
57,-370,-1,314
33,-311,-1,279
11,-217,-1,207
-1,-191,-1,193
-31,-119,-1,151
-55,-66,-1,122
-89,6,-1,84
-103,47,-1,57
-117,75,-1,43
-124,79,0,45
-127,129,0,-2
-126,131,0,-5
-126,131,0,-5
-112,152,0,-40
-97,181,0,-84
-75,186,0,-111
-61,229,0,-168
-44,307,0,-263
-24,306,0,-282
-12,362,0,-350
-6,395,0,-389
1,402,0,-403
15,358,0,-373
16,366,0,-382
21,335,0,-356
19,282,0,-301
13,257,0,-270
17,314,0,-331
17,340,0,-357
19,361,0,-380
13,376,0,-389
6,381,0,-387
-6,399,0,-393
-12,395,0,-383
-26,370,0,-344
-43,360,0,-317
-57,327,0,-270
-70,254,0,-184
-76,222,0,-146
-83,183,0,-100
-95,152,0,-57
-102,151,0,-49
-108,129,0,-21
-120,140,0,-20
-123,142,0,-19
-118,108,0,10
-98,52,0,46
-87,31,0,56
-74,-43,0,117
-44,-106,0,150
-23,-205,0,228
13,-266,0,253
26,-313,0,287
42,-391,0,349
57,-394,0,337
67,-386,0,319
86,-414,0,328
86,-400,0,314
97,-417,0,320
103,-408,0,305
107,-365,0,258
101,-338,0,237
101,-275,0,174
93,-222,0,129
93,-211,0,118
86,-157,0,71
96,-144,-1,49
78,-116,-1,39
64,-110,-1,47
69,-105,-1,37
77,-124,-1,48
83,-140,-1,58
85,-110,-1,26
79,-118,-1,40
54,-51,-1,-2
53,-90,-1,38
51,-88,-1,38
54,-100,-1,47
44,-107,-1,64
45,-106,-1,62
29,-69,-2,42
43,-104,-2,63
64,-101,-2,39
74,-82,-2,10
69,-75,-3,9
59,-88,-3,32
58,-73,-5,20
44,-54,-6,16
72,-99,-11,38
81,-109,-11,39
94,-61,-13,-20
80,-82,-15,17
85,-61,-18,-6
81,-53,-20,-8
84,-33,-25,-26
88,-16,-27,-45
83,-21,-35,-27
99,-36,-37,-26
93,-59,-39,5
70,-21,-48,-1
74,-19,-58,3
89,-55,-67,33
101,-34,-80,13
90,-10,-88,8
97,-6,-93,2
85,3,-100,12
73,7,-109,29
94,24,-124,6
95,25,-136,16
111,16,-153,26
132,-40,-157,65
201,-34,-165,-2
386,-122,-204,-60
314,-75,-174,-65
256,-52,-139,-65
207,-8,-96,-103
150,-20,-68,-62
108,-38,-40,-30
81,-51,-24,-6
56,-24,-14,-18
25,-11,-2,-12
12,-29,-3,20
-6,28,-19,-3
-15,43,-11,-17
-21,45,-20,-4
-26,51,-31,6
-33,35,-35,33
-34,46,-46,34
-43,25,-53,71
-53,21,-54,86
-68,22,-37,83
-73,-33,-33,139
-81,-71,-28,180
-83,-115,-30,228
-86,-108,-21,215
-104,-115,-7,226
-107,-99,1,205
-114,-107,2,219
-118,-81,-2,201
-122,-77,-15,214
-130,-54,-15,199
-137,-43,-21,201
-142,-16,-22,180
-147,48,-19,118
-151,74,-17,94
-151,104,-13,60
-160,143,4,13
-169,201,13,-45
-172,208,33,-69
-175,240,53,-118
-177,260,67,-150
-179,299,85,-205
-180,287,108,-215
-186,291,128,-233
-185,279,139,-233
-186,269,145,-228
-184,257,129,-202
-183,243,109,-169
-183,240,82,-139
-185,244,67,-126
-182,210,42,-70
-179,229,15,-65
-171,176,10,-15
-174,145,-12,41
-165,115,-24,74
-164,74,-17,107
-164,29,-22,157
-158,-21,-16,195
-149,-20,-15,184
-139,-57,-3,199
-137,-66,-3,206
-131,-90,1,220
-120,-110,1,229
-110,-119,0,229
-98,-136,0,234
-91,-86,-15,192
-79,-85,-23,187
-66,-80,-38,184
-59,-33,-48,140
-48,-19,-54,121
-41,34,-58,65
-33,60,-59,32
-23,59,-61,25
-15,48,-49,16
-8,60,-33,-19
4,73,-24,-53
12,55,-23,-44
21,49,-17,-53
19,-8,13,-24
38,-3,1,-36
62,1,-5,-58
86,-46,-4,-36
125,-40,-17,-68
166,-47,-25,-94
212,-59,-54,-99
272,-76,-96,-100
342,-69,-136,-137
158,-27,-131,0
95,-77,-134,116
84,-40,-134,90
96,-31,-141,76
106,-41,-137,72
95,-25,-127,57
80,46,-118,-8
68,-4,-109,45
61,-69,-96,104
69,-63,-88,82
75,-49,-84,58
67,-73,-76,82
88,-42,-70,24
89,-48,-58,17
90,-41,-54,5
77,3,-48,-32
73,8,-43,-38
81,-55,-40,14
76,-23,-34,-19
85,-16,-30,-39
85,-31,-25,-29
79,-40,-21,-18
73,-62,-12,1
54,-55,-10,11
37,-50,-8,21
43,-35,-8,0
51,-75,-7,31
61,-103,-6,48
63,-109,-4,50
59,-80,-3,24
65,-105,-3,43
69,-75,-3,9
64,-89,-3,28
54,-88,-3,37
66,-97,-3,34
61,-102,-2,43
67,-63,-2,-2
67,-82,-2,17
73,-103,-2,32
75,-121,-2,48
90,-123,-2,35
73,-128,-2,57
82,-116,-2,36
68,-66,-2,0
60,-86,-2,28
61,-113,-2,54
58,-145,-2,89
62,-144,-2,84
81,-197,-2,118
90,-250,-1,161
91,-284,-1,194
93,-308,-1,216
79,-342,-1,264
95,-386,-1,292
97,-399,-1,303
97,-424,-1,328
85,-414,-1,330
94,-402,-1,309
60,-363,-1,304
47,-361,-1,315
16,-306,-1,291
4,-251,-1,248
-5,-172,-1,178
-37,-102,-1,140
-59,-18,-1,78
-83,26,-1,58
-103,88,-1,16
-119,98,-1,22
-123,128,0,-5
-135,148,0,-13
-122,181,0,-59
-118,183,0,-65
-111,181,0,-70
-93,193,0,-100
-79,232,0,-153
-60,238,0,-178
-44,298,0,-254
-28,341,0,-313
-6,364,0,-358
0,395,0,-395
9,424,0,-433
14,399,0,-413
26,377,0,-403
24,371,0,-395
26,334,0,-360
15,288,0,-303
16,347,0,-363
17,379,0,-396
19,402,0,-421
16,412,0,-428
3,420,0,-423
-1,427,0,-426
-8,417,0,-409
-24,406,0,-382
-41,374,0,-333
-56,319,0,-263
-67,272,0,-205
-71,247,0,-176
-84,213,0,-129
-91,203,0,-112
-101,198,0,-97
-120,198,0,-78
-121,208,0,-87
-129,167,0,-38
-121,156,0,-35
-105,92,0,13
-97,61,0,36
-75,-22,0,97
-44,-108,0,152
-22,-204,0,226
-3,-248,0,251
22,-332,0,310
27,-365,0,338
41,-381,0,340
63,-420,0,357
63,-429,0,366
83,-418,0,335
86,-423,0,337
86,-388,0,302
86,-379,0,293
89,-285,0,196
83,-227,0,144
75,-244,0,169
71,-180,0,109
81,-169,0,88
75,-131,-1,57
59,-105,-1,47
47,-83,-1,37
69,-135,-1,67
68,-134,-1,67
70,-106,-1,37
71,-84,-1,14
56,-74,-1,19
51,-68,-1,18
45,-85,-1,41
55,-85,-1,31
46,-100,-1,55
41,-84,-1,44
36,-56,-1,21
25,-72,-2,49
49,-77,-2,30
64,-88,-2,26
68,-90,-2,24
71,-94,-3,26
64,-90,-3,29
40,-44,-5,9
39,-83,-6,50
67,-105,-11,49
78,-60,-11,-7
81,-29,-13,-39
60,-31,-15,-14
59,-37,-18,-4
72,-38,-20,-14
80,-17,-26,-37
77,8,-30,-55
84,-22,-38,-24
96,-66,-41,11
84,-55,-43,14
81,-25,-52,-4
82,-4,-62,-16
97,-16,-72,-9
100,12,-85,-27
85,11,-93,-3
108,-20,-98,10
66,1,-106,39
76,47,-116,-7
87,25,-132,20
94,-32,-145,83
104,-38,-158,92
122,4,-164,38
188,-18,-168,-2
394,-89,-213,-92
317,-56,-174,-87
257,-12,-133,-112
201,-51,-97,-53
147,-41,-60,-46
107,-65,-32,-10
69,-23,-17,-29
39,-41,-3,5
25,-12,6,-19
2,43,8,-53
-13,63,-6,-44
-21,78,-5,-52
-19,66,-10,-37
-26,94,-25,-43
-34,49,-34,19
-38,67,-40,11
-46,35,-39,50
-48,20,-52,80
-56,-2,-39,97
-66,-18,-27,111
-76,-36,-21,133
-79,-80,-18,177
-86,-109,-15,210
-95,-109,4,200
-104,-102,8,198
-108,-143,18,233
-113,-122,5,230
-124,-120,10,234
-130,-72,-7,209
-140,-35,-5,180
-145,-23,1,167
-153,20,-6,139
-154,92,-3,65
-157,114,1,42
-165,148,2,15
-170,173,36,-39
-174,125,52,-3
-179,197,66,-84
-186,234,86,-134
-189,215,107,-133
-191,228,129,-166
-194,214,152,-172
-190,219,158,-187
-191,240,151,-200
-194,243,145,-194
-197,224,118,-145
-200,231,106,-137
-192,207,81,-96
-192,182,64,-54
-188,190,34,-36
-184,206,12,-34
-178,150,-2,30
-175,107,-8,76
-162,61,-5,106
-159,50,-8,117
-149,-5,1,153
-142,-48,-2,192
-134,-86,9,211
-128,-76,8,196
-120,-68,9,179
-118,-110,7,221
-110,-123,18,215
-102,-101,5,198
-89,-82,-7,178
-76,-93,-19,188
-67,-51,-30,148
-60,-43,-34,137
-51,-34,-46,131
-37,8,-57,86
-20,54,-48,14
-14,74,-47,-13
0,44,-42,-2
-5,60,-17,-38
8,50,-24,-34
24,70,-15,-79
27,15,-3,-39
38,-46,16,-8
49,-57,22,-14
60,-3,8,-65
93,-34,0,-59
124,-53,-13,-58
172,-13,-28,-131
230,-47,-49,-134
289,-23,-92,-174
357,-59,-129,-169
162,-16,-132,-14
99,-7,-133,41
92,29,-140,19
106,49,-146,-9
114,21,-143,8
102,-29,-133,60
110,-23,-124,37
95,12,-115,8
88,16,-102,-2
81,-2,-94,15
89,-42,-90,43
90,-51,-81,42
102,-87,-75,60
95,-84,-62,51
86,-58,-58,30
96,-59,-52,15
70,2,-46,-26
90,-2,-43,-45
73,-51,-35,13
83,-43,-31,-9
86,-26,-26,-34
82,-25,-22,-35
71,16,-13,-74
66,-54,-11,-1
44,-63,-9,28
42,-44,-9,11
48,-53,-8,13
55,-64,-7,16
48,-88,-5,45
60,-103,-4,47
64,-89,-4,29
70,-102,-3,35
67,-74,-3,10
57,-90,-3,36
58,-68,-3,13
63,-89,-2,28
73,-93,-2,22
67,-81,-2,16
66,-84,-2,20
69,-107,-2,40
80,-109,-2,31
65,-90,-2,27
76,-134,-2,60
67,-76,-2,11
57,-71,-2,16
53,-97,-2,46
42,-115,-2,75
51,-171,-2,122
57,-181,-2,126
73,-202,-1,130
84,-261,-1,178
76,-300,-1,225
81,-333,-1,253
76,-366,-1,291
83,-386,-1,304
86,-403,-1,318
83,-423,-1,341
77,-415,-1,339
54,-389,-1,336
37,-349,-1,313
8,-307,-1,300
-6,-256,-1,263
-18,-146,-1,165
-41,-78,-1,120
-59,-10,-1,70
-86,67,-1,20
-101,95,-1,7
-113,155,-1,-41
-121,163,0,-42
-128,190,0,-62
-124,211,0,-87
-116,221,0,-105
-106,228,0,-122
-91,231,0,-140
-75,242,0,-167
-59,257,0,-198
-45,294,0,-249
-25,365,0,-340
-9,384,0,-375
7,416,0,-423
14,428,0,-442
19,455,0,-474
26,412,0,-438
29,394,0,-423
24,372,0,-396
16,331,0,-347
6,397,0,-403
20,413,0,-433
25,427,0,-452
11,434,0,-445
7,450,0,-457
-1,455,0,-454
-12,437,0,-425
-20,416,0,-396
-38,388,0,-350
-50,306,0,-256
-57,276,0,-219
-68,255,0,-187
-76,232,0,-156
-91,236,0,-145
-110,230,0,-120
-119,230,0,-111
-122,217,0,-95
-134,209,0,-75
-122,155,0,-33
-108,115,0,-7
-96,48,0,48
-76,-2,0,78
-50,-109,0,159
-40,-160,0,200
-3,-266,0,269
9,-316,0,307
19,-356,0,337
43,-393,0,350
52,-431,0,379
59,-395,0,336
70,-428,0,358
71,-399,0,328
63,-385,0,322
59,-291,0,232
77,-245,0,168
74,-226,0,152
56,-193,0,137
62,-143,0,81
66,-118,0,52
53,-98,-1,46
37,-87,-1,51
39,-118,-1,80
47,-90,-1,44
51,-92,-1,42
45,-42,-1,-2
55,-58,-1,4
46,-43,-1,-2
24,-39,-1,16
43,-47,-1,5
53,-77,-1,25
29,-61,-1,33
26,-46,-1,21
33,-47,-1,15
26,-85,-2,61
40,-73,-2,35
55,-80,-2,27
48,-34,-2,-12
50,-78,-3,31
48,-66,-3,21
26,-67,-5,46
25,-80,-6,61
53,-76,-11,34
54,-27,-11,-16
53,-55,-13,15
43,-4,-15,-24
60,-11,-18,-31
69,-22,-20,-27
71,-18,-27,-26
68,-46,-31,9
78,-31,-39,-8
98,-40,-43,-15
67,-14,-47,-6
72,16,-56,-32
75,8,-67,-16
94,-7,-78,-9
92,-36,-93,37
112,-3,-103,-6
106,-5,-109,8
76,33,-119,10
81,22,-130,27
97,-4,-148,55
90,-13,-162,85
102,-24,-167,89
137,-25,-175,63
199,-45,-182,28
398,-41,-221,-136
327,-34,-181,-112
269,-64,-137,-68
194,-81,-95,-18
143,-22,-52,-69
106,-38,-28,-40
69,-11,-17,-41
40,-25,-3,-12
23,16,15,-54
10,12,11,-33
-10,41,13,-44
-16,48,3,-35
-26,23,5,-2
-23,38,-11,-4
-24,17,-22,29
-28,27,-36,37
-33,53,-31,11
-42,48,-33,27
-46,33,-34,47
-58,-36,-18,112
-73,-93,-11,177
-76,-103,-10,189
-82,-139,-6,227
-92,-91,13,170
-105,-104,22,187
-109,-117,28,198
-119,-87,19,187
-125,-85,18,192
-137,-34,11,160
-145,-50,17,178
-151,11,16,124
-153,40,4,109
-154,22,13,119
-166,47,11,108
-171,88,16,67
-179,110,53,16
-187,183,65,-61
-186,215,82,-111
-192,250,96,-154
-194,260,118,-184
-194,275,143,-224
-193,278,162,-247
-199,245,174,-220
-199,230,163,-194
-193,254,149,-210
-198,235,142,-179
-197,236,129,-168
-193,218,103,-128
-191,180,79,-68
-187,153,53,-19
-185,143,27,15
-178,108,17,53
-170,83,12,75
-166,76,7,83
-157,44,13,100
-152,21,13,118
-141,-28,13,156
-133,-58,25,166
-125,-63,25,163
-114,-83,20,177
-104,-80,23,161
-94,-117,29,182
-82,-137,17,202
-78,-120,0,198
-65,-91,-17,173
-59,-78,-22,159
-49,-50,-28,127
-43,-14,-36,93
-36,30,-43,49
-26,27,-43,42
-18,57,-34,-5
-7,68,-23,-38
-4,68,-20,-44
12,57,-20,-49
18,51,-4,-65
29,34,16,-79
40,-11,22,-51
52,-42,30,-40
79,-90,18,-7
96,-86,12,-22
135,-116,-8,-11
178,-49,-29,-100
231,-90,-49,-92
290,-94,-90,-106
367,-75,-138,-154
164,-43,-139,18
100,-27,-138,65
84,-67,-142,125
96,-30,-154,88
130,-11,-146,27
109,-3,-138,32
101,12,-131,18
98,-19,-120,41
83,-19,-109,45
88,-62,-100,74
86,-39,-96,49
91,-36,-87,32
106,-87,-81,62
102,-109,-67,74
100,-108,-63,71
99,-88,-57,46
95,-50,-50,5
85,-23,-44,-18
68,-52,-36,20
61,-45,-32,16
83,-69,-27,13
74,-55,-23,4
72,-53,-14,-5
63,-23,-12,-28
44,-45,-10,11
44,-81,-9,46
45,-58,-8,21
40,-52,-7,19
45,-77,-5,37
59,-85,-4,30
51,-110,-4,63
58,-94,-3,39
66,-93,-3,30
60,-91,-3,34
60,-82,-3,25
57,-72,-2,17
64,-87,-2,25
72,-77,-2,7
64,-83,-2,21
44,-71,-2,29
75,-99,-2,26
51,-112,-2,63
67,-108,-2,43
53,-118,-2,67
51,-93,-2,44
53,-96,-2,45
34,-122,-2,90
42,-146,-2,106
42,-166,-2,126
49,-212,-1,164
70,-222,-1,153
73,-282,-1,210
58,-328,-1,271
65,-358,-1,294
61,-393,-1,333
69,-424,-1,356
68,-424,-1,357
70,-403,-1,334
45,-394,-1,350
29,-371,-1,343
0,-326,-1,327
-22,-247,-1,270
-27,-181,-1,209
-53,-64,-1,118
-71,20,-1,52
-86,75,-1,12
-95,136,-1,-40
-112,167,-1,-54
-116,195,0,-79
-122,213,0,-91
-123,210,0,-87
-115,229,0,-114
-96,242,0,-146
-89,251,0,-162
-74,252,0,-178
-61,281,0,-220
-44,309,0,-265
-27,352,0,-325
-10,405,0,-395
8,422,0,-430
19,449,0,-468
27,461,0,-488
31,457,0,-488
33,423,0,-456
31,410,0,-441
17,381,0,-398
11,432,0,-443
27,456,0,-483
34,440,0,-474
22,465,0,-487
17,481,0,-498
3,472,0,-475
-5,461,0,-456
-11,414,0,-403
-28,359,0,-331
-37,324,0,-287
-48,313,0,-265
-58,267,0,-209
-66,270,0,-204
-87,258,0,-171
-106,283,0,-177
-113,253,0,-140
-129,260,0,-131
-129,214,0,-85
-124,172,0,-48
-110,135,0,-25
-92,89,0,3
-74,-13,0,87
-53,-95,0,148
-41,-178,0,219
-13,-246,0,259
-2,-313,0,315
14,-340,0,326
34,-398,0,364
40,-401,0,361
58,-416,0,358
73,-414,0,341
56,-351,0,295
51,-298,0,247
55,-243,0,188
73,-219,0,146
62,-215,0,153
55,-136,0,81
67,-144,0,77
67,-103,0,36
50,-99,-1,50
34,-71,-1,38
41,-79,-1,39
60,-69,-1,10
52,-19,-1,-32
63,-44,-1,-18
53,-39,-1,-13
46,-10,-1,-35
41,-48,-1,8
56,-42,-1,-13
62,-44,-1,-17
49,-50,-1,2
32,-47,-1,16
47,-42,-1,-4
38,-22,-2,-14
53,-57,-2,6
63,-8,-2,-53
65,-84,-3,22
68,-72,-4,8
54,-83,-4,33
54,-52,-7,5
46,-76,-8,38
65,-30,-13,-22
56,-16,-13,-27
53,-1,-16,-36
63,0,-18,-45
77,-59,-21,3
81,-11,-24,-46
70,-30,-31,-9
80,26,-35,-71
101,-9,-43,-49
96,1,-47,-50
87,-20,-51,-16
85,-8,-61,-16
97,7,-74,-30
119,-18,-85,-16
121,31,-101,-51
118,28,-112,-34
96,-37,-118,59
82,19,-127,26
81,-16,-138,73
100,-28,-155,83
106,-34,-167,95
116,33,-172,23
143,42,-180,-5
205,34,-186,-53
410,-43,-219,-148
341,-27,-181,-133
269,-44,-136,-89
197,-54,-89,-54
143,-63,-44,-36
112,-61,-23,-28
73,-56,-13,-4
46,-7,11,-50
26,4,19,-49
11,-30,22,-3
-4,-11,35,-20
-15,46,19,-50
-15,34,12,-31
-14,41,5,-32
-14,42,-9,-19
-21,52,-21,-10
-21,38,-21,4
-27,0,-22,49
-39,-24,-22,85
-52,-87,-6,145
-61,-107,-5,173
-70,-95,12,153
-79,-86,11,154
-96,-107,18,185
-107,-150,29,228
-114,-97,41,170
-123,-107,39,191
-134,-56,37,153
-136,-47,40,143
-143,-18,30,131
-149,9,28,112
-152,45,27,80
-153,66,24,63
-159,72,31,56
-174,125,38,11
-174,109,67,-2
-182,133,74,-25
-181,192,96,-107
-188,186,115,-113
-188,216,141,-169
-193,219,157,-183
-201,196,188,-183
-204,231,186,-213
-197,237,176,-216
-196,200,170,-174
-195,199,159,-163
-182,173,143,-134
-182,149,126,-93
-180,155,101,-76
-180,148,70,-38
-172,128,40,4
-167,103,32,32
-169,76,30,63
-164,78,25,61
-149,22,34,93
-139,9,23,107
-136,-13,36,113
-129,-65,32,162
-118,-80,42,156
-113,-88,41,160
-108,-108,45,171
-100,-142,37,205
-81,-160,25,216
-68,-173,11,230
-59,-145,4,200
-54,-117,-1,172
-49,-54,-21,124
-29,-32,-19,80
-21,-3,-19,43
-15,34,-29,10
-13,55,-19,-23
-11,38,-2,-25
-2,24,-13,-9
21,42,-11,-52
18,33,13,-64
27,71,29,-127
41,62,35,-138
56,-26,39,-69
75,-53,37,-59
102,-55,16,-63
144,-86,4,-62
199,-92,-26,-81
250,-85,-55,-110
310,-85,-85,-140
387,-78,-132,-177
175,-5,-125,-45
89,-13,-132,56
84,17,-136,35
97,-5,-152,60
129,-12,-147,30
120,39,-141,-18
115,5,-135,15
121,-15,-126,20
100,24,-115,-9
104,-2,-106,4
93,21,-102,-12
104,7,-93,-18
119,13,-87,-45
109,-61,-73,25
109,-84,-69,44
103,-101,-63,61
123,-63,-56,-4
103,-40,-50,-13
82,-33,-42,-7
71,-26,-37,-8
96,-47,-30,-19
91,-47,-25,-19
81,-45,-16,-20
73,-9,-14,-50
68,-18,-12,-38
60,-53,-11,4
51,-47,-9,5
55,-34,-8,-13
51,-17,-6,-28
53,-61,-4,12
66,-63,-4,1
60,-78,-3,21
63,-62,-3,2
53,-57,-3,7
73,-46,-3,-24
77,-32,-2,-43
68,-34,-2,-32
78,-36,-2,-40
80,-22,-2,-56
53,-45,-2,-6
75,-51,-2,-22
57,-80,-2,25
65,-63,-2,0
57,-72,-2,17
51,-49,-2,0
46,-65,-2,21
36,-65,-2,31
41,-109,-2,70
39,-147,-2,110
30,-183,-1,154
48,-191,-1,144
57,-228,-1,172
50,-260,-1,211
58,-323,-1,266
49,-342,-1,294
53,-376,-1,324
60,-399,-1,340
53,-394,-1,342
23,-382,-1,360
18,-369,-1,352
-12,-312,-1,325
-32,-269,-1,302
-45,-157,-1,203
-61,-61,-1,123
-88,37,-1,52
-96,103,-1,-6
-101,173,-1,-71
-111,200,-1,-88
-115,228,0,-113
-123,251,0,-128
-120,268,0,-148
-120,272,0,-152
-101,297,0,-196
-85,296,0,-211
-70,301,0,-231
-56,302,0,-246
-43,326,0,-283
-30,371,0,-341
-17,420,0,-403
-3,457,0,-454
20,461,0,-481
28,503,0,-531
34,502,0,-536
35,468,0,-503
32,441,0,-473
14,436,0,-450
11,471,0,-482
33,466,0,-499
30,481,0,-511
26,502,0,-528
15,493,0,-508
4,494,0,-498
-2,468,0,-466
-11,421,0,-410
-26,363,0,-337
-35,333,0,-298
-45,311,0,-266
-52,304,0,-252
-68,304,0,-236
-94,315,0,-221
-107,309,0,-202
-119,296,0,-177
-130,267,0,-137
-131,238,0,-107
-124,191,0,-67
-108,163,0,-55
-95,92,0,3
-85,-4,0,89
-69,-80,0,149
-48,-170,0,218
-27,-258,0,285
-11,-308,0,319
2,-374,0,372
14,-397,0,383
28,-401,0,373
35,-406,0,371
39,-378,0,339
26,-322,0,296
32,-273,0,241
41,-256,0,215
52,-239,0,187
49,-163,0,114
50,-178,0,128
47,-121,0,74
45,-106,0,61
20,-96,-1,77
24,-110,-1,87
34,-68,-1,35
48,-74,-1,27
43,-37,-1,-5
38,-67,-1,30
41,-11,-1,-29
38,-31,-1,-6
48,-38,-1,-9
66,-33,-1,-32
49,-42,-1,-6
41,-42,-1,2
37,-13,-1,-23
48,-43,-1,-4
38,-61,-2,25
54,-45,-2,-7
54,-74,-2,22
48,-79,-3,34
59,-74,-4,19
48,-64,-5,21
41,-32,-8,-1
40,-19,-9,-12
45,10,-14,-41
46,-20,-14,-12
63,-7,-17,-39
75,-50,-19,-6
79,-17,-22,-40
77,-10,-25,-42
81,7,-32,-56
84,-5,-36,-43
97,-14,-46,-37
92,-4,-50,-38
97,33,-55,-75
106,-50,-66,10
112,-29,-80,-3
118,-11,-92,-15
132,-15,-108,-9
111,-13,-119,21
107,10,-126,9
91,-4,-136,49
94,-5,-148,59
118,43,-166,5
115,72,-170,-17
127,47,-179,5
137,37,-186,12
196,-31,-188,23
416,-64,-223,-129
344,-92,-175,-77
264,-90,-131,-43
210,-84,-80,-46
157,-64,-41,-52
114,-24,-16,-74
84,-49,-3,-32
58,-61,10,-7
40,-95,21,34
19,-38,39,-20
16,11,40,-67
8,-18,37,-27
2,-15,19,-6
-3,19,19,-35
1,33,1,-35
-10,51,-1,-40
-19,44,-5,-20
-28,8,-2,22
-39,-44,-2,85
-47,-60,-6,113
-65,-110,12,163
-79,-116,24,171
-83,-101,30,154
-91,-133,28,196
-98,-150,41,207
-106,-100,54,152
-114,-93,61,146
-122,-79,52,149
-129,-43,55,117
-134,-30,53,111
-134,-2,43,93
-140,20,40,80
-153,46,47,60
-159,70,51,38
-166,98,59,9
-168,113,77,-22
-175,122,86,-33
-176,142,110,-76
-187,160,122,-95
-192,159,160,-127
-192,172,184,-164
-191,174,195,-178
-189,168,192,-171
-190,199,185,-194
-190,191,186,-187
-185,196,178,-189
-184,200,151,-167
-174,182,136,-144
-169,124,114,-69
-165,126,85,-46
-164,65,64,35
-157,73,60,24
-148,50,43,55
-142,18,48,76
-142,21,46,75
-139,16,52,71
-133,3,42,88
-125,-53,45,133
-114,-52,46,120
-106,-97,54,149
-102,-101,61,142
-92,-132,62,162
-85,-141,39,187
-69,-183,25,227
-66,-143,16,193
-50,-145,12,183
-48,-73,0,121
-35,-17,-6,58
-22,22,-14,14
-12,16,-13,9
-9,45,0,-36
-7,79,3,-75
10,48,-2,-56
27,19,7,-53
31,17,29,-77
42,26,40,-108
62,-4,42,-100
74,-20,44,-98
91,-42,49,-98
128,16,29,-173
162,-44,8,-126
214,-38,-25,-151
270,-45,-54,-171
330,-62,-82,-186
402,-60,-132,-210
187,1,-123,-65
107,23,-134,4
89,-23,-135,69
106,-16,-151,61
132,0,-153,21
142,-5,-146,9
133,19,-141,-11
127,39,-132,-34
127,35,-121,-41
113,43,-112,-44
115,-2,-107,-6
107,6,-97,-16
121,12,-91,-42
121,17,-77,-61
120,8,-73,-55
116,-54,-67,5
122,-93,-60,31
125,-40,-54,-31
90,-56,-46,12
83,-60,-41,18
87,-83,-34,30
99,-65,-28,-6
87,-44,-18,-25
87,-51,-15,-21
91,-32,-13,-46
85,-71,-12,-2
78,-66,-10,-2
63,-38,-8,-17
62,-60,-6,4
68,-53,-4,-11
72,-69,-4,1
74,-50,-3,-21
69,-39,-3,-27
67,-61,-3,-3
71,-89,-3,21
74,-81,-2,9
76,-39,-2,-35
78,-50,-2,-26
89,-51,-2,-36
61,-50,-2,-9
69,-76,-2,9
60,-83,-2,25
65,-104,-2,41
63,-62,-2,1
55,-108,-2,55
48,-82,-2,36
44,-89,-2,47
39,-99,-2,62
46,-142,-2,98
41,-158,-1,118
43,-212,-1,170
50,-222,-1,173
52,-284,-1,233
46,-298,-1,253
51,-376,-1,326
46,-381,-1,336
52,-412,-1,361
56,-408,-1,353
28,-395,-1,368
7,-357,-1,351
-13,-325,-1,339
-32,-258,-1,291
-46,-182,-1,229
-66,-73,-1,140
-80,26,-1,55
-101,116,-1,-14
-99,175,-1,-75
-107,215,-1,-107
-107,249,0,-142
-113,283,0,-170
-113,277,0,-164
-102,265,0,-163
-92,290,0,-198
-71,313,0,-242
-58,322,0,-264
-46,310,0,-264
-33,343,0,-310
-22,365,0,-343
-6,405,0,-399
7,468,0,-475
24,488,0,-512
38,497,0,-535
48,520,0,-568
47,512,0,-559
39,472,0,-511
18,474,0,-492
13,506,0,-519
37,490,0,-527
37,496,0,-533
31,517,0,-548
21,499,0,-520
13,485,0,-498
10,454,0,-464
-5,390,0,-385
-14,367,0,-353
-23,339,0,-316
-33,319,0,-286
-43,331,0,-288
-67,337,0,-270
-81,321,0,-240
-104,317,0,-213
-119,296,0,-177
-123,265,0,-142
-123,233,0,-110
-121,208,0,-87
-103,170,0,-67
-97,45,0,52
-87,12,0,75
-63,-87,0,150
-55,-186,0,241
-35,-265,0,300
-15,-336,0,351
-9,-364,0,373
1,-380,0,379
14,-389,0,375
23,-398,0,375
19,-321,0,302
13,-326,0,313
17,-280,0,263
25,-246,0,221
36,-243,0,207
46,-195,0,149
20,-157,0,137
27,-155,0,128
14,-143,0,129
18,-112,-1,95
28,-117,-1,90
32,-120,-1,89
38,-60,-1,23
32,-103,-1,72
25,-60,-1,36
31,-99,-1,69
35,-63,-1,29
47,-65,-1,19
52,-59,-1,8
55,-68,-1,14
46,-22,-1,-23
51,-94,-1,44
47,-83,-1,37
46,-97,-2,53
54,-88,-2,36
56,-96,-2,42
49,-132,-3,86
43,-79,-4,40
50,-25,-5,-20
41,-47,-8,14
40,-8,-9,-23
48,-51,-14,17
46,-39,-14,7
61,-76,-17,32
67,-76,-20,29
78,-35,-23,-20
72,-10,-26,-36
81,-45,-33,-3
86,-31,-37,-18
94,-54,-47,7
106,-19,-52,-35
102,-66,-57,21
110,-31,-69,-10
109,-7,-83,-19
122,12,-95,-39
127,-13,-112,-2
107,16,-123,0
109,-6,-130,27
102,-32,-142,72
96,65,-152,-9
102,68,-170,0
115,62,-173,-4
115,1,-180,64
144,20,-186,22
212,-15,-181,-16
436,-73,-218,-145
350,-83,-173,-94
285,-58,-122,-105
227,-91,-70,-66
181,-101,-33,-47
136,-133,-11,8
108,-54,12,-66
78,-49,24,-53
57,-31,43,-69
39,-39,55,-55
18,12,61,-91
12,31,58,-101
2,20,45,-67
-2,33,35,-66
-13,51,32,-70
-20,71,23,-74
-21,6,13,2
-26,-11,19,18
-37,-51,24,64
-46,-68,14,100
-65,-59,27,97
-74,-68,39,103
-85,-92,53,124
-91,-73,51,113
-99,-74,59,114
-106,-89,67,128
-112,-86,85,113
-118,-53,76,95
-126,-32,76,82
-136,-20,73,83
-147,12,58,77
-158,29,62,67
-164,50,65,49
-166,73,79,14
-177,92,81,4
-177,120,91,-34
-188,131,100,-43
-185,113,130,-58
-190,140,149,-99
-186,187,174,-175
-188,156,202,-170
-188,147,213,-172
-185,103,210,-128
-185,176,201,-192
-176,138,195,-157
-177,158,195,-176
-177,181,171,-175
-173,151,148,-126
-173,170,135,-132
-168,152,112,-96
-167,99,98,-30
-159,61,81,17
-144,7,71,66
-143,11,67,65
-134,-34,62,106
-134,-42,73,103
-130,-59,71,118
-127,-76,66,137
-121,-106,69,158
-112,-126,82,156
-102,-123,72,153
-95,-124,79,140
-84,-153,57,180
-78,-140,41,177
-70,-151,41,180
-51,-99,29,121
-39,-102,26,115
-36,-63,9,90
-26,-37,3,60
-20,-7,10,17
-17,3,25,-11
-10,47,13,-50
0,51,15,-66
8,15,42,-65
28,-49,50,-29
36,-30,59,-65
61,-36,57,-82
80,-58,60,-82
111,-134,63,-40
137,-113,51,-75
177,-122,13,-68
224,-113,-9,-102
279,-117,-44,-118
336,-102,-76,-158
422,-140,-116,-166
200,-3,-113,-84
109,-3,-119,13
87,-12,-127,52
106,-51,-142,87
129,-49,-152,72
127,-47,-144,64
136,-54,-141,59
133,-29,-135,31
134,-37,-124,27
119,-50,-116,47
104,-3,-109,8
108,-12,-98,2
120,-41,-92,13
118,-47,-78,7
109,-25,-74,-10
110,-3,-68,-39
115,-97,-61,43
114,-87,-55,28
92,-106,-47,61
79,-71,-42,34
73,-117,-35,79
75,-141,-29,95
86,-121,-19,54
72,-94,-16,38
59,-72,-14,27
88,-113,-13,38
85,-140,-11,66
65,-117,-9,61
56,-105,-7,56
61,-108,-5,52
63,-151,-4,92
79,-94,-3,18
68,-87,-3,22
55,-83,-3,31
62,-97,-3,38
71,-101,-2,32
76,-100,-2,26
79,-98,-2,21
76,-73,-2,-1
68,-80,-2,14
73,-88,-2,17
48,-117,-2,71
62,-135,-2,75
60,-162,-2,104
49,-110,-2,63
44,-133,-2,91
25,-138,-2,115
31,-134,-2,105
37,-182,-2,147
30,-196,-1,167
34,-222,-1,189
32,-273,-1,242
34,-270,-1,237
33,-322,-1,290
27,-348,-1,322
26,-389,-1,364
33,-424,-1,392
39,-427,-1,389
14,-416,-1,403
-5,-355,-1,361
-31,-326,-1,358
-48,-247,-1,296
-58,-188,-1,247
-86,-94,-1,181
-90,8,-1,83
-113,95,-1,19
-113,185,-1,-71
-102,220,-1,-117
-103,255,0,-152
-114,277,0,-163
-107,308,0,-201
-105,319,0,-214
-87,302,0,-215
-72,331,0,-259
-57,338,0,-281
-48,349,0,-301
-34,341,0,-307
-22,377,0,-355
-13,403,0,-390
5,427,0,-432
20,486,0,-506
41,503,0,-544
50,510,0,-560
52,541,0,-593
38,513,0,-551
17,499,0,-516
10,526,0,-536
35,514,0,-549
39,537,0,-576
31,529,0,-560
27,516,0,-543
21,497,0,-518
13,417,0,-430
8,389,0,-397
-6,378,0,-372
-19,336,0,-317
-22,344,0,-322
-40,342,0,-302
-64,351,0,-287
-79,332,0,-253
-108,346,0,-238
-119,315,0,-196
-122,285,0,-163
-122,271,0,-149
-122,255,0,-133
-105,144,0,-39
-103,94,0,9
-94,3,0,91
-72,-97,0,169
-68,-194,0,262
-37,-276,0,313
-29,-318,0,347
-27,-383,0,410
-7,-353,0,360
4,-379,0,375
5,-350,0,345
5,-339,0,334
1,-275,0,274
7,-239,0,232
17,-276,0,259
29,-220,0,191
17,-165,0,148
9,-167,0,158
9,-131,0,122
-1,-88,0,89
16,-131,-1,116
13,-112,-1,100
17,-76,-1,60
18,-69,-1,52
14,-115,-1,102
17,-59,-1,43
11,-64,-1,54
35,-37,-1,3
29,-43,-1,15
32,-25,-1,-6
46,-48,-1,3
43,-116,-1,74
40,-83,-1,44
52,-95,-1,44
40,-80,-2,42
37,-119,-2,84
25,-58,-2,35
22,-52,-3,33
39,-39,-5,5
45,-63,-6,24
44,-72,-9,37
36,-61,-10,35
42,-81,-15,54
48,-120,-16,88
68,-121,-19,72
81,-64,-22,5
76,-68,-26,18
72,-56,-29,13
82,-43,-37,-2
88,-33,-42,-13
100,-63,-54,17
112,-29,-59,-24
101,-39,-64,2
111,-14,-78,-19
106,-8,-93,-5
127,-33,-106,12
118,-34,-124,40
117,-21,-136,40
120,2,-143,21
99,3,-155,53
98,68,-165,-1
117,62,-175,-4
118,11,-182,53
114,-34,-186,106
131,-47,-191,107
201,-65,-185,49
439,-135,-218,-86
365,-96,-173,-96
306,-88,-119,-99
242,-79,-72,-91
180,-98,-37,-45
150,-70,-18,-62
102,-74,10,-38
74,-72,25,-27
41,-35,42,-48
27,-7,49,-69
-1,-5,66,-60
-9,13,65,-69
-17,66,61,-110
-29,63,43,-77
-30,55,39,-64
-32,45,34,-47
-41,24,28,-11
-49,-3,29,23
-50,-2,29,23
-67,-29,23,73
-73,-16,23,66
-86,-33,51,68
-97,-77,52,122
-106,-78,66,118
-111,-95,56,150
-115,-72,80,107
-125,-69,92,102
-135,-80,87,128
-152,-17,85,84
-158,-1,87,72
-161,19,66,76
-165,40,75,50
-173,63,84,26
-182,83,84,15
-191,106,94,-9
-192,86,91,15
-192,96,116,-20
-197,101,130,-34
-190,107,150,-67
-195,108,188,-101
-192,90,196,-94
-183,93,211,-121
-188,121,215,-148
-183,110,198,-125
-185,144,198,-157
-181,157,187,-163
-181,113,178,-110
-175,153,155,-133
-172,137,129,-94
-171,166,118,-113
-163,182,109,-128
-160,133,85,-58
-160,95,89,-24
-151,18,72,61
-139,19,70,50
-132,2,67,63
-128,-7,76,59
-125,-34,73,86
-127,-29,76,80
-125,-55,79,101
-117,-48,85,80
-108,-32,75,65
-98,-62,68,92
-83,-99,50,132
-74,-75,40,109
-73,-39,33,79
-61,-59,30,90
-43,-14,21,36
-42,5,16,21
-46,41,25,-20
-36,44,29,-37
-20,65,27,-72
-14,69,28,-83
-10,37,46,-73
5,17,52,-74
20,-20,61,-61
36,0,59,-95
66,-39,63,-90
95,-71,66,-90
124,-154,54,-24
177,-148,20,-49
229,-127,-19,-83
285,-132,-50,-103
349,-122,-82,-145
428,-140,-121,-167
207,-36,-116,-55
135,-44,-120,29
96,-57,-129,90
99,-14,-143,58
126,-6,-155,35
114,28,-149,7
134,16,-146,-4
117,20,-140,3
130,34,-131,-33
134,7,-123,-18
114,5,-116,-3
103,-34,-105,36
96,-57,-99,60
105,-21,-82,-2
105,-75,-77,47
90,1,-70,-21
100,16,-63,-53
105,-53,-57,5
92,0,-49,-43
61,-33,-44,16
65,-50,-37,22
47,-64,-30,47
64,-99,-20,55
50,-72,-17,39
38,-83,-14,59
46,-25,-13,-8
57,-60,-11,14
63,-108,-9,54
47,-66,-7,26
63,-78,-5,20
47,-71,-4,28
49,-84,-3,38
61,-58,-3,0
42,-46,-3,7
54,-32,-3,-19
43,-66,-2,25
49,-72,-2,25
60,-41,-2,-17
64,-64,-2,2
53,-57,-2,6
59,-59,-2,2
35,-93,-2,60
44,-86,-2,44
45,-132,-2,89
42,-114,-2,74
30,-129,-2,101
21,-107,-2,88
12,-124,-2,114
21,-124,-2,105
18,-170,-1,153
21,-220,-1,200
9,-233,-1,225
8,-252,-1,245
25,-281,-1,257
8,-290,-1,283
13,-344,-1,332
14,-371,-1,358
16,-381,-1,366
7,-416,-1,410
-9,-340,-1,350
-40,-317,-1,358
-58,-246,-1,305
-76,-180,-1,257
-96,-82,-1,179
-107,13,-1,95
-108,99,-1,10
-119,171,-1,-51
-120,258,-1,-137
-104,291,0,-187
-110,312,0,-202
-104,312,0,-208
-98,329,0,-231
-81,326,0,-245
-70,328,0,-258
-52,343,0,-291
-43,348,0,-305
-28,373,0,-345
-14,375,0,-361
-5,398,0,-393
3,443,0,-446
19,475,0,-494
36,513,0,-549
54,524,0,-578
49,559,0,-608
47,563,0,-610
16,547,0,-563
3,547,0,-550
34,549,0,-583
42,551,0,-593
39,532,0,-571
38,498,0,-536
27,469,0,-496
24,402,0,-426
19,386,0,-405
5,363,0,-368
0,338,0,-338
-15,339,0,-324
-35,367,0,-332
-53,348,0,-295
-82,354,0,-272
-103,315,0,-212
-112,311,0,-199
-110,293,0,-183
-117,275,0,-158
-120,230,0,-110
-111,137,0,-26
-108,110,0,-2
-95,-12,0,107
-84,-108,0,192
-71,-203,0,274
-42,-260,0,302
-42,-331,0,373
-39,-329,0,368
-14,-386,0,400
-13,-380,0,393
-11,-335,0,346
-12,-301,0,313
-3,-277,0,280
3,-294,0,291
-2,-236,0,238
12,-203,0,191
6,-167,0,161
-1,-161,0,162
-10,-118,0,128
3,-149,0,146
5,-142,-1,138
4,-123,-1,120
9,-61,-1,53
11,-151,-1,141
8,-86,-1,79
3,-59,-1,57
25,-64,-1,40
31,-37,-1,7
21,-22,-1,2
33,-80,-1,48
51,-81,-1,31
31,-95,-1,65
33,-97,-1,65
56,-73,-1,18
23,-57,-2,36
7,-45,-2,40
27,-84,-2,59
20,-50,-3,33
46,-75,-5,34
59,-115,-6,62
44,-98,-9,63
23,-128,-11,116
39,-105,-16,82
58,-82,-19,43
76,-60,-22,6
78,-63,-25,10
71,-57,-29,15
79,-62,-33,16
92,-58,-43,9
89,-77,-48,36
90,-43,-60,13
110,-35,-66,-9
105,-41,-72,8
101,-42,-86,27
113,-90,-101,78
124,-66,-115,57
117,-35,-133,51
122,20,-145,3
125,-29,-153,57
107,33,-165,25
109,-17,-175,83
131,-40,-182,91
124,-38,-188,102
133,-34,-198,99
152,-14,-189,51
226,-53,-185,12
456,-99,-225,-132
383,-117,-166,-100
315,-94,-110,-111
240,-71,-68,-101
189,-140,-38,-11
143,-78,-8,-57
93,-67,16,-42
65,-23,35,-77
25,33,49,-107
3,38,67,-108
-7,55,67,-115
-19,12,67,-60
-38,18,72,-52
-46,48,61,-63
-55,72,58,-75
-45,19,48,-22
-51,-20,49,22
-58,-23,46,35
-60,-44,43,61
-72,-39,39,72
-79,-44,30,93
-87,-85,42,130
-94,-68,65,97
-102,-91,84,109
-102,-91,79,114
-113,-78,87,104
-130,-36,99,67
-136,-22,97,61
-139,-7,94,52
-144,31,92,21
-159,14,74,71
-165,42,76,47
-179,58,95,26
-181,94,94,-7
-182,37,94,51
-179,66,83,30
-184,73,111,0
-192,105,127,-40
-190,122,156,-88
-192,158,182,-148
-189,139,193,-143
-185,146,208,-169
-188,149,210,-171
-186,132,193,-139
-187,126,187,-126
-182,133,182,-133
-177,76,181,-80
-178,111,150,-83
-178,84,131,-37
-177,76,120,-19
-175,80,120,-25
-171,68,100,3
-170,96,93,-19
-161,61,79,21
-156,56,72,28
-157,20,69,68
-145,-33,79,99
-134,-39,88,85
-126,-20,86,60
-121,-49,80,90
-115,-69,89,95
-110,-93,79,124
-112,-69,73,108
-101,-45,71,75
-97,-77,46,128
-87,-50,43,94
-72,-29,46,55
-67,-3,34,36
-53,1,35,17
-43,22,39,-18
-36,18,32,-14
-29,-9,33,5
-27,56,45,-74
-10,67,55,-112
10,12,72,-94
17,6,72,-95
36,3,69,-108
52,-10,72,-114
86,-43,61,-104
128,-92,56,-92
171,-100,29,-100
231,-87,-19,-125
288,-114,-36,-138
361,-169,-77,-115
436,-132,-116,-188
215,-8,-102,-105
119,-9,-104,-6
94,4,-119,21
93,-26,-134,67
114,-36,-148,70
108,11,-153,34
116,36,-147,-5
121,27,-141,-7
116,3,-133,14
125,33,-125,-33
119,35,-119,-35
108,69,-108,-69
112,-25,-101,14
97,-51,-84,38
97,-10,-78,-9
89,-66,-71,48
88,-27,-64,3
97,-51,-58,12
86,-36,-50,0
71,-45,-45,19
61,-13,-38,-10
54,-80,-31,57
52,-67,-21,36
50,-75,-18,43
36,-103,-15,82
34,-61,-14,41
55,-76,-11,32
51,-88,-9,46
45,-77,-7,39
53,-82,-5,34
62,-97,-4,39
63,-99,-3,39
60,-79,-3,22
44,-49,-3,8
54,-69,-3,18
57,-43,-2,-12
40,-43,-2,5
55,-58,-2,5
67,-53,-2,-12
43,-58,-2,17
67,-94,-2,29
37,-65,-2,30
26,-91,-2,67
36,-111,-2,77
31,-145,-2,116
28,-156,-2,130
20,-159,-2,141
5,-150,-2,147
9,-135,-2,128
1,-168,-1,168
16,-198,-1,183
7,-224,-1,218
-10,-258,-1,269
-4,-264,-1,269
2,-297,-1,296
-8,-313,-1,322
1,-355,-1,355
7,-387,-1,381
-15,-376,-1,392
-16,-342,-1,359
-42,-309,-1,352
-62,-231,-1,294
-75,-170,-1,246
-98,-101,-1,200
-118,12,-1,107
-121,100,-1,22
-115,149,-1,-33
-121,243,-1,-121
-109,302,0,-193
-102,315,0,-213
-96,344,0,-248
-88,331,0,-243
-75,344,0,-269
-57,329,0,-272
-43,338,0,-295
-34,352,0,-318
-18,362,0,-344
-7,388,0,-381
-1,398,0,-397
10,428,0,-438
19,469,0,-488
33,509,0,-542
56,537,0,-593
54,539,0,-593
50,584,0,-634
19,587,0,-606
-2,596,0,-594
32,594,0,-626
39,570,0,-609
44,546,0,-590
46,508,0,-554
34,451,0,-485
36,410,0,-446
28,396,0,-424
18,355,0,-373
12,364,0,-376
-8,370,0,-362
-23,377,0,-354
-46,370,0,-324
-71,347,0,-276
-92,350,0,-258
-100,317,0,-217
-101,317,0,-216
-109,293,0,-184
-105,187,0,-82
-104,163,0,-59
-98,74,0,24
-91,-9,0,100
-81,-118,0,199
-64,-180,-1,245
-52,-249,-1,302
-45,-290,-1,336
-20,-345,-1,366
-14,-366,-1,381
-15,-313,-1,329
-9,-329,-1,339
1,-301,-1,301
-9,-281,-1,291
-9,-264,-1,274
1,-228,-1,228
8,-221,-1,214
12,-171,-1,160
-2,-134,-1,137
-9,-124,-1,134
3,-149,-1,147
11,-107,-2,98
8,-86,-2,80
12,-143,-2,133
16,-111,-2,97
13,-52,-2,41
11,-60,-2,51
27,-45,-2,20
37,-53,-2,18
35,-71,-2,38
35,-73,-2,40
40,-101,-2,63
33,-44,-2,13
46,-51,-2,7
45,-43,-2,0
6,-63,-3,60
16,-70,-3,57
24,-100,-3,79
32,-48,-4,20
58,-85,-6,33
50,-99,-7,56
31,-78,-10,57
18,-49,-12,43
43,-77,-17,51
63,-42,-20,-1
73,-69,-23,19
69,-24,-27,-18
65,-43,-33,11
80,-68,-38,26
79,-20,-48,-11
77,-20,-53,-4
84,-22,-65,3
100,-19,-71,-10
105,-72,-77,44
103,-68,-91,56
115,-38,-106,29
104,-19,-120,35
120,14,-138,4
118,-3,-149,34
119,45,-158,-6
114,0,-171,57
119,2,-177,56
128,48,-189,13
133,24,-193,36
130,5,-196,61
147,-28,-185,66
226,-36,-183,-7
472,-132,-219,-121
391,-167,-157,-67
313,-148,-104,-61
241,-127,-64,-50
191,-100,-35,-56
134,-61,-9,-64
89,-51,19,-57
49,24,50,-123
23,4,61,-88
-4,-19,66,-43
-18,-29,76,-29
-36,3,75,-42
-56,36,81,-61
-63,39,90,-66
-62,19,69,-26
-66,-33,75,24
-69,-29,72,26
-68,-50,57,61
-74,-35,57,52
-84,-59,56,87
-89,-69,48,110
-93,-78,53,118
-104,-74,70,108
-114,-80,84,110
-123,-70,93,100
-130,-36,94,72
-137,-56,100,93
-140,-16,102,54
-161,15,98,48
-166,21,93,52
-172,-20,86,106
-179,4,92,83
-188,0,109,79
-189,6,109,74
-190,33,93,64
-193,44,96,53
-197,79,120,-2
-200,73,139,-12
-194,97,162,-65
-196,116,187,-107
-195,139,200,-144
-191,118,212,-139
-191,133,205,-147
-194,149,196,-151
-194,130,194,-130
-200,98,195,-93
-195,53,183,-41
-195,48,166,-19
-193,25,143,25
-187,29,133,25
-190,0,130,60
-185,-1,130,56
-180,-6,105,81
-178,-41,107,112
-172,16,84,72
-159,43,74,42
-156,20,82,54
-151,12,92,47
-145,-29,99,75
-134,-22,91,65
-126,-44,85,85
-121,-82,87,116
-116,-87,85,118
-116,-71,77,110
-114,-61,71,104
-98,-29,57,70
-97,14,54,29
-93,49,48,-4
-90,109,52,-71
-79,66,52,-39
-57,51,47,-41
-41,61,50,-70
-39,5,57,-23
-37,37,78,-78
-18,7,78,-67
9,-15,79,-73
35,-62,78,-51
63,-31,71,-103
92,-37,76,-131
115,-72,64,-107
161,-133,42,-70
222,-134,-6,-82
294,-131,-43,-120
353,-196,-73,-84
444,-205,-119,-120
210,-76,-97,-37
131,-25,-103,-3
101,17,-109,-9
101,43,-134,-10
112,-23,-148,59
102,-7,-153,58
96,-27,-150,81
113,27,-145,5
115,24,-141,2
114,1,-133,18
119,-3,-126,10
103,6,-114,5
117,-6,-106,-5
89,-17,-89,17
99,-50,-82,33
88,-17,-75,4
84,-43,-67,26
94,-18,-61,-15
73,-73,-53,53
84,-47,-48,11
59,-31,-41,13
56,-44,-33,21
45,-78,-23,56
52,-63,-20,31
38,-5,-17,-16
30,-46,-16,32
32,6,-12,-26
33,-22,-10,-1
38,-79,-8,49
37,-50,-6,19
46,-54,-5,13
56,-13,-4,-39
45,-35,-4,-6
38,-8,-4,-26
54,-36,-4,-14
57,-21,-3,-33
44,-29,-3,-12
47,-30,-3,-14
70,-32,-3,-35
45,-25,-3,-17
53,-24,-3,-26
35,-75,-3,43
30,-43,-3,16
27,-87,-3,63
23,-115,-3,95
19,-136,-3,120
12,-113,-3,104
4,-105,-3,104
10,-130,-3,123
4,-131,-2,129
9,-156,-2,149
3,-195,-2,194
-5,-238,-2,245
-9,-252,-2,263
-2,-276,-2,280
-6,-276,-2,284
-4,-323,-2,329
-4,-348,-2,354
-17,-357,-2,376
-19,-333,-2,354
-44,-284,-2,330
-59,-251,-2,312
-81,-170,-2,253
-99,-86,-2,187
-113,-5,-2,120
-129,82,-2,49
-120,203,-2,-81
-123,232,-2,-107
-106,291,-1,-184
-99,335,0,-236
-88,342,0,-254
-76,353,0,-277
-60,363,0,-303
-48,365,0,-317
-28,361,0,-333
-21,370,0,-349
-12,376,0,-364
6,398,0,-404
14,395,0,-409
23,420,0,-443
19,469,0,-488
38,508,0,-546
45,541,0,-586
53,585,0,-638
43,600,0,-643
21,642,0,-663
-3,628,0,-625
33,592,0,-625
44,578,0,-622
50,544,0,-594
47,490,0,-537
42,436,0,-478
41,398,0,-439
38,381,0,-419
30,364,0,-394
19,356,0,-375
1,368,0,-369
-14,358,0,-344
-42,375,0,-333
-66,342,0,-276
-82,325,0,-243
-87,339,0,-252
-94,322,0,-228
-98,257,0,-159
-116,222,0,-106
-109,160,0,-51
-101,80,0,21
-104,-6,0,110
-79,-110,-1,190
-76,-167,-1,244
-55,-233,-1,289
-49,-294,-1,344
-37,-348,-1,386
-28,-316,-2,346
-22,-306,-2,330
-23,-297,-2,322
-17,-286,-2,305
-16,-276,-2,294
-10,-233,-2,245
-16,-243,-2,261
-1,-203,-2,206
-5,-138,-2,145
-25,-144,-2,171
-14,-175,-2,191
-7,-121,-2,130
8,-149,-3,144
-6,-124,-3,133
-1,-153,-3,157
4,-73,-3,72
-1,-89,-3,93
15,-45,-3,33
37,-54,-3,20
30,-102,-3,75
21,-120,-3,102
34,-70,-3,39
34,-74,-3,43
38,-47,-3,12
38,-65,-3,30
23,-86,-3,66
-9,-66,-4,79
5,-82,-4,81
15,-66,-4,55
25,-89,-5,69
39,-88,-7,56
40,-90,-8,58
26,-105,-11,90
16,-54,-15,53
47,-69,-20,42
48,-53,-24,29
47,-42,-27,22
47,-70,-31,54
48,-69,-37,58
63,-55,-42,34
48,-27,-52,31
64,-35,-57,28
75,-51,-69,45
98,-70,-75,47
78,-78,-82,82
94,-27,-96,29
86,-27,-112,53
91,15,-126,20
105,-4,-144,43
113,39,-157,5
115,65,-166,-14
111,3,-178,64
114,12,-181,55
126,-28,-193,95
129,-20,-200,91
128,27,-195,40
146,-5,-182,41
226,-73,-181,28
483,-120,-213,-150
402,-118,-158,-126
310,-80,-103,-127
237,-97,-56,-84
180,-81,-27,-72
121,-97,3,-27
81,-47,30,-64
45,-75,53,-23
14,-30,68,-52
-6,-39,71,-26
-30,27,72,-69
-46,60,82,-96
-54,72,96,-114
-62,98,90,-126
-68,46,88,-66
-76,13,88,-25
-78,15,79,-16
-77,26,66,-15
-88,-14,62,40
-89,-16,65,40
-93,-57,55,95
-101,-37,62,76
-113,-26,70,69
-125,-18,92,51
-131,-39,103,67
-141,-83,99,125
-149,-7,101,55
-159,-35,104,90
-165,-26,106,85
-172,16,99,57
-176,55,109,12
-180,25,110,45
-176,38,110,28
-187,58,118,11
-189,105,97,-13
-189,127,104,-42
-196,112,120,-36
-188,116,149,-77
-186,96,173,-83
-192,106,184,-98
-193,129,207,-143
-193,161,209,-177
-196,164,197,-165
-195,167,193,-165
-194,141,183,-130
-187,104,199,-116
-192,117,181,-106
-187,78,167,-58
-187,41,147,-1
-192,51,144,-3
-185,43,132,10
-179,49,136,-6
-178,53,125,0
-171,31,120,20
-168,11,98,59
-159,27,77,55
-160,30,89,41
-151,22,106,23
-142,15,104,23
-136,23,100,13
-127,-29,87,69
-116,-18,87,47
-114,-58,83,89
-107,-57,64,100
-100,-50,71,79
-92,-64,69,87
-87,-50,59,78
-83,13,58,12
-77,54,67,-44
-75,95,58,-78
-69,94,57,-82
-55,83,73,-101
-44,41,81,-78
-35,8,93,-66
-24,-35,87,-28
7,-22,91,-76
21,-59,88,-50
53,-57,76,-72
95,-111,71,-55
131,-88,62,-105
175,-137,45,-83
222,-151,6,-77
290,-165,-38,-87
365,-191,-67,-107
456,-206,-122,-128
217,-127,-94,4
143,-96,-95,48
107,-65,-99,57
117,-18,-128,29
128,-17,-142,31
114,-56,-150,92
110,-54,-156,100
102,16,-152,34
114,-9,-146,41
110,27,-139,2
107,34,-131,-10
110,24,-120,-14
106,0,-110,4
90,-32,-92,34
85,-72,-84,71
80,-62,-77,59
88,-65,-68,45
85,-64,-62,41
72,-48,-54,30
67,-91,-49,73
63,-74,-41,52
42,-60,-33,51
41,-55,-23,37
30,-74,-20,64
35,-91,-17,73
19,-45,-16,42
25,-68,-12,55
20,-46,-10,36
20,-24,-8,12
35,-65,-6,36
21,-56,-5,40
34,-69,-4,39
40,-47,-4,11
26,-40,-4,18
39,-35,-4,0
36,-50,-3,17
44,-55,-3,14
40,-91,-3,54
51,-78,-3,30
35,-52,-3,20
42,-74,-3,35
27,-86,-3,62
17,-95,-3,81
6,-90,-3,87
8,-120,-3,115
8,-147,-3,142
-3,-167,-3,173
-8,-151,-3,162
-8,-139,-3,150
-10,-182,-2,194
-6,-194,-2,202
-8,-170,-2,180
-20,-213,-2,235
-23,-262,-2,287
-28,-271,-2,301
-18,-318,-2,338
-21,-317,-2,340
-18,-347,-2,367
-30,-347,-2,379
-42,-342,-2,386
-50,-297,-2,349
-62,-213,-2,277
-80,-160,-2,242
-101,-80,-2,183
-117,-11,-2,130
-130,89,-2,43
-132,170,-2,-36
-107,230,-2,-121
-104,273,-1,-168
-101,337,0,-236
-81,356,0,-275
-71,370,0,-299
-50,356,0,-306
-34,362,0,-328
-19,354,0,-335
-9,344,0,-335
5,386,0,-391
11,385,0,-396
25,393,0,-418
32,420,0,-452
34,444,0,-478
39,490,0,-529
53,536,0,-589
52,572,0,-624
49,606,0,-655
14,650,0,-664
-3,663,0,-660
37,614,0,-651
53,572,0,-625
61,515,0,-576
60,456,0,-516
57,439,0,-496
58,416,0,-474
53,376,0,-429
45,366,0,-411
29,382,0,-411
9,376,0,-385
-11,386,0,-375
-35,345,0,-310
-57,363,0,-306
-68,354,0,-286
-83,380,0,-297
-91,327,0,-236
-104,269,0,-165
-107,212,0,-105
-107,179,0,-72
-101,88,0,13
-109,-9,0,118
-89,-86,-1,176
-75,-171,-1,247
-66,-230,-1,297
-46,-299,-1,346
-38,-296,-2,336
-31,-267,-2,300
-32,-312,-2,346
-33,-281,-2,316
-27,-251,-2,280
-27,-247,-2,276
-24,-219,-2,245
-20,-191,-2,213
-4,-150,-2,156
-23,-139,-2,164
-32,-120,-2,154
-17,-107,-2,126
-6,-108,-2,116
-6,-80,-3,89
-8,-117,-3,128
-8,-71,-3,82
0,-74,-3,77
2,-32,-3,33
14,-46,-3,35
32,-81,-3,52
28,-62,-3,37
22,-41,-3,22
29,-18,-3,-8
34,-5,-3,-26
37,-56,-3,22
26,-35,-3,12
22,-31,-3,12
-8,-39,-4,51
2,-33,-4,35
18,8,-4,-22
25,-19,-5,-1
40,-30,-7,-3
35,-41,-8,14
25,-34,-11,20
26,-6,-15,-5
43,-36,-20,13
53,-8,-24,-21
43,-7,-27,-9
42,-10,-31,-1
52,-23,-37,8
47,-19,-42,14
56,-1,-52,-3
53,-17,-57,21
77,-18,-70,11
91,-26,-76,11
86,-26,-83,23
96,-4,-97,5
65,-16,-114,65
95,42,-128,-9
115,60,-145,-30
114,49,-158,-5
125,32,-170,13
120,15,-178,43
120,50,-185,15
139,48,-194,7
133,26,-197,38
134,-6,-188,60
155,-11,-173,29
235,-20,-177,-38
485,-138,-197,-150
392,-154,-136,-102
308,-152,-95,-61
244,-159,-49,-36
182,-96,-19,-67
129,-99,15,-45
81,-66,41,-56
47,-30,58,-75
22,-29,78,-71
-2,-39,83,-42
-22,15,82,-75
-42,26,91,-75
-52,10,109,-67
-63,35,106,-78
-70,25,113,-68
-89,6,104,-21
-99,-46,96,49
-96,-25,92,29
-94,-33,76,51
-99,-37,76,60
-99,-69,72,96
-113,-6,73,46
-116,-36,84,68
-139,-63,104,98
-150,-83,112,121
